{"learner":{"attributes":{"scikit_learn":"{\"_estimator_type\": \"regressor\"}"},"feature_names":["rolling_pm25","temperature_2m_mean","precipitation_sum","wind_speed_10m_max","wind_direction_10m_dominant"],"feature_types":["float","float","float","float","float"],"gradient_booster":{"model":{"gbtree_model_param":{"num_parallel_tree":"1","num_trees":"100"},"iteration_indptr":[0,1,2,3,4,5,6,7,8,9,10,11,12,13,14,15,16,17,18,19,20,21,22,23,24,25,26,27,28,29,30,31,32,33,34,35,36,37,38,39,40,41,42,43,44,45,46,47,48,49,50,51,52,53,54,55,56,57,58,59,60,61,62,63,64,65,66,67,68,69,70,71,72,73,74,75,76,77,78,79,80,81,82,83,84,85,86,87,88,89,90,91,92,93,94,95,96,97,98,99,100],"tree_info":[0,0,0,0,0,0,0,0,0,0,0,0,0,0,0,0,0,0,0,0,0,0,0,0,0,0,0,0,0,0,0,0,0,0,0,0,0,0,0,0,0,0,0,0,0,0,0,0,0,0,0,0,0,0,0,0,0,0,0,0,0,0,0,0,0,0,0,0,0,0,0,0,0,0,0,0,0,0,0,0,0,0,0,0,0,0,0,0,0,0,0,0,0,0,0,0,0,0,0,0],"trees":[{"base_weights":[-1.780192E-7,-8.091367E0,1.2577395E1,-1.3848139E1,-2.3992512E0,8.952014E0,2.3430235E1,-2.0814081E1,-1.0863255E1,2.0179253E0,-6.7204137E0,1.4001557E1,2.982138E0,2.5797022E1,3.7334223E0,-7.7903714E0,-1.7333624E1,-8.8293934E-1,-1.2867624E1,9.696687E0,1.99301E-1,-4.5217037E0,-1.2419435E1,1.947061E1,1.12296715E1,4.3588753E0,-1.025741E1,4.26008E0,2.7139442E1,-1.4790834E0,3.1856477E0,-1.8520527E1,-1.131175E0,-6.2299066E0,4.9090214E0,-1.2236515E1,-6.383412E0,1.1023905E1,-2.7262352E0,-2.4971848E0,2.7266285E0,-5.4073086E0,8.187583E0,-1.2878936E1,2.73765E-1,1.2658792E1,2.7541271E1,1.3460025E1,3.700933E-1,6.82828E0,8.5447246E-1,-9.3992007E-1,-4.893725E0,-2.576235E0,2.8856475E0,3.1370367E1,1.9792095E1,2.618825E0,-1.9349802E0,-3.825854E0,-6.5502844E0,-8.349801E-1,5.7376504E-1,-5.7997334E-1,-3.25926E0,2.0250275E0,-4.1435254E-1,-4.7787952E0,-3.4682138E0,-2.276235E0,3.7001536E0,-1.1097088E-1,-2.5480976E0,-1.465882E0,1.4411831E0,-2.0685859E0,1.8002823E-1,4.010648E0,-4.3498003E-1,-4.2928286E0,-2.6931546E0,4.2726426E0,-3.326235E0,3.4650202E0,8.671028E0,4.657954E0,1.7320594E0,-2.2799735E0,3.1693115E0,2.2296522E0,-1.8349801E0,1.3814807E0,-3.2572234E0,-2.7262352E0,1.0106475E0,7.6497164E0,1.1758421E1,6.3932896E0,4.6502E-1,9.6502E-1,1.23765E-1],"categories":[],"categories_nodes":[],"categories_segments":[],"categories_sizes":[],"default_left":[0,0,0,0,0,0,0,0,0,0,0,0,0,0,0,0,0,0,0,0,0,0,0,0,0,0,0,0,0,0,0,0,0,0,0,0,0,0,0,0,0,0,0,0,0,0,0,0,0,0,0,0,0,0,0,0,0,0,0,0,0,0,0,0,0,0,0,0,0,0,0,0,0,0,0,0,0,0,0,0,0,0,0,0,0,0,0,0,0,0,0,0,0,0,0,0,0,0,0,0,0],"id":0,"left_children":[1,3,5,7,9,11,13,15,17,19,21,23,25,27,29,-1,31,33,35,37,39,41,43,45,47,49,51,53,55,57,-1,59,61,63,65,67,-1,69,-1,71,73,75,77,79,-1,81,83,85,87,89,91,93,-1,-1,-1,95,97,99,-1,-1,-1,-1,-1,-1,-1,-1,-1,-1,-1,-1,-1,-1,-1,-1,-1,-1,-1,-1,-1,-1,-1,-1,-1,-1,-1,-1,-1,-1,-1,-1,-1,-1,-1,-1,-1,-1,-1,-1,-1,-1,-1],"loss_changes":[7.6428E4,1.4941848E4,1.1357883E4,4.493793E3,4.422736E3,6.650467E3,3.3068164E3,7.517051E2,3.2093223E3,1.6040171E3,1.4099111E3,1.600502E3,1.9221315E3,1.7636406E3,3.3871796E2,0E0,8.059707E2,8.977266E2,4.5088867E2,6.4865356E2,6.474098E2,1.01223816E3,2.0778662E2,1.7954199E3,1.9811152E3,8.076216E2,5.488423E2,4.268344E2,1.2753633E3,1.3911177E2,0E0,4.8605762E2,2.5437187E1,2.7767676E2,1.714527E2,1.3278711E2,0E0,6.055574E2,0E0,5.8364294E2,7.9837866E2,7.28187E2,3.1898975E2,4.4565918E1,0E0,1.02267725E3,3.646582E1,9.9047266E2,1.299015E3,4.7541235E2,1.806997E3,2.0614217E2,0E0,0E0,0E0,7.003281E2,6.5964844E2,3.9495392E0,0E0,0E0,0E0,0E0,0E0,0E0,0E0,0E0,0E0,0E0,0E0,0E0,0E0,0E0,0E0,0E0,0E0,0E0,0E0,0E0,0E0,0E0,0E0,0E0,0E0,0E0,0E0,0E0,0E0,0E0,0E0,0E0,0E0,0E0,0E0,0E0,0E0,0E0,0E0,0E0,0E0,0E0,0E0],"parents":[2147483647,0,0,1,1,2,2,3,3,4,4,5,5,6,6,7,7,8,8,9,9,10,10,11,11,12,12,13,13,14,14,16,16,17,17,18,18,19,19,20,20,21,21,22,22,23,23,24,24,25,25,26,26,27,27,28,28,29,29,31,31,32,32,33,33,34,34,35,35,37,37,39,39,40,40,41,41,42,42,43,43,45,45,46,46,47,47,48,48,49,49,50,50,51,51,55,55,56,56,57,57],"right_children":[2,4,6,8,10,12,14,16,18,20,22,24,26,28,30,-1,32,34,36,38,40,42,44,46,48,50,52,54,56,58,-1,60,62,64,66,68,-1,70,-1,72,74,76,78,80,-1,82,84,86,88,90,92,94,-1,-1,-1,96,98,100,-1,-1,-1,-1,-1,-1,-1,-1,-1,-1,-1,-1,-1,-1,-1,-1,-1,-1,-1,-1,-1,-1,-1,-1,-1,-1,-1,-1,-1,-1,-1,-1,-1,-1,-1,-1,-1,-1,-1,-1,-1,-1,-1],"split_conditions":[4.7E1,3.3E1,6.5666664E1,2.2333334E1,1.5629972E1,1.5815435E1,2.0945072E1,1.6333334E1,1.2738099E1,1.1183201E1,2.7241266E2,1.2218805E1,2.8528723E1,6.2408347E0,7.5E1,-7.7903714E0,3.1729062E2,2.756621E2,3.1259941E1,4.3666668E1,4.0333332E1,2.6234348E2,4.6333332E1,2.836673E2,2.9594223E2,2.4534608E2,2.258068E2,7.2666664E1,1E-1,2.2314192E1,3.1856477E0,1.5315873E1,9.02625E0,1.1753876E1,3.4874933E2,7.941711E1,-6.383412E0,3.4E1,-2.7262352E0,2.7651968E2,1.1449856E2,2.6592916E1,1E-1,3.0194034E2,2.73765E-1,2.4E0,6.76375E0,5E-1,1.3570615E1,5.200001E0,1.5657501E1,8.62E0,-4.893725E0,-2.576235E0,2.8856475E0,7.5333336E1,2.8124445E2,2.1650938E1,-1.9349802E0,-3.825854E0,-6.5502844E0,-8.349801E-1,5.7376504E-1,-5.7997334E-1,-3.25926E0,2.0250275E0,-4.1435254E-1,-4.7787952E0,-3.4682138E0,-2.276235E0,3.7001536E0,-1.1097088E-1,-2.5480976E0,-1.465882E0,1.4411831E0,-2.0685859E0,1.8002823E-1,4.010648E0,-4.3498003E-1,-4.2928286E0,-2.6931546E0,4.2726426E0,-3.326235E0,3.4650202E0,8.671028E0,4.657954E0,1.7320594E0,-2.2799735E0,3.1693115E0,2.2296522E0,-1.8349801E0,1.3814807E0,-3.2572234E0,-2.7262352E0,1.0106475E0,7.6497164E0,1.1758421E1,6.3932896E0,4.6502E-1,9.6502E-1,1.23765E-1],"split_indices":[0,0,0,0,3,3,3,0,3,3,4,3,3,1,0,0,4,4,3,0,0,4,0,4,4,4,4,0,2,3,0,3,1,3,4,4,0,0,0,4,4,1,2,4,0,2,1,2,3,2,1,1,0,0,0,0,4,3,0,0,0,0,0,0,0,0,0,0,0,0,0,0,0,0,0,0,0,0,0,0,0,0,0,0,0,0,0,0,0,0,0,0,0,0,0,0,0,0,0,0,0],"split_type":[0,0,0,0,0,0,0,0,0,0,0,0,0,0,0,0,0,0,0,0,0,0,0,0,0,0,0,0,0,0,0,0,0,0,0,0,0,0,0,0,0,0,0,0,0,0,0,0,0,0,0,0,0,0,0,0,0,0,0,0,0,0,0,0,0,0,0,0,0,0,0,0,0,0,0,0,0,0,0,0,0,0,0,0,0,0,0,0,0,0,0,0,0,0,0,0,0,0,0,0,0],"sum_hessian":[7.49E2,4.56E2,2.93E2,2.26E2,2.3E2,2.21E2,7.2E1,6.6E1,1.6E2,1.14E2,1.16E2,1.19E2,1.02E2,6.4E1,8E0,2.4E1,4.2E1,2.7E1,1.33E2,2.1E1,9.3E1,8.5E1,3.1E1,3.8E1,8.1E1,9.3E1,9E0,4E0,6E1,5E0,3E0,3.9E1,3E0,1.4E1,1.3E1,1.26E2,7E0,2E1,1E0,4.5E1,4.8E1,8E1,5E0,3E1,1E0,2.2E1,1.6E1,6.7E1,1.4E1,5.4E1,3.9E1,4E0,5E0,1E0,3E0,3.6E1,2.4E1,3E0,2E0,1.6E1,2.3E1,2E0,1E0,8E0,6E0,1E1,3E0,1.6E1,1.1E2,1E0,1.9E1,3.4E1,1.1E1,1E1,3.8E1,6.4E1,1.6E1,3E0,2E0,2E1,1E1,2.1E1,1E0,2E0,1.4E1,5.2E1,1.5E1,8E0,6E0,5.2E1,2E0,3E1,9E0,1E0,3E0,2.3E1,1.3E1,2.2E1,2E0,2E0,1E0],"tree_param":{"num_deleted":"0","num_feature":"5","num_nodes":"101","size_leaf_vector":"1"}},{"base_weights":[-4.148687E-3,-6.1089973E0,8.44575E0,-9.849145E0,-2.0369847E0,5.5053525E0,1.5968078E1,-1.6591427E1,-8.228782E0,3.5740685E0,-4.3581142E0,1.8413687E1,4.6392035E0,1.7911222E1,7.377767E-1,-1.0454057E1,-2.0202244E1,-1.0410755E0,-9.558284E0,5.19931E0,-2.3695662E0,-2.6003945E0,-9.6085E0,-5.171316E-1,6.0285964E0,5.317779E0,-6.3138704E0,2.4894776E0,1.8711187E1,-3.1003523E0,8.22959E0,-5.022888E0,-5.9143586E0,-6.271605E0,-3.9369223E-1,-5.3501434E0,3.6246686E0,-8.036211E0,-1.2447888E1,6.451059E0,-4.8467345E0,8.725605E-1,-5.7363443E0,-3.6528454E0,8.605134E0,-1.0012515E1,7.4041045E-1,3.34076E0,8.868456E0,1.9063854E0,-1.1689829E1,2.0284538E0,-2.1897995E0,2.081647E1,1.1986107E1,2.1053743E0,-6.644863E0,6.959181E-1,2.8278909E0,-2.672287E0,-9.912821E-1,-2.2359884E0,-1.8080293E-1,5.3134754E-2,1.7710073E0,-2.8536685E0,-1.2087278E0,-9.300765E-1,-4.2996817E0,1.5836775E-1,2.596725E0,-2.3232164E0,-4.386183E-1,-1.9348E0,8.519636E-1,-9.589577E-3,-2.0045242E0,-7.6927716E-1,-2.1523888E0,5.0750527E0,1.3237808E0,-4.5592103E0,-2.5406897E0,8.7973326E-1,5.976259E0,5.3321443E0,2.3368733E0,-2.3172998E0,1.6132188E0,-4.155525E0,5.1654285E-1,7.2204075E0,4.321785E0,1.9046146E0,5.0965886E0,7.7201617E-1,1.0520039E-1,-5.106829E-1,-2.2364824E0],"categories":[],"categories_nodes":[],"categories_segments":[],"categories_sizes":[],"default_left":[0,0,0,0,0,0,0,0,0,0,0,0,0,0,0,0,0,0,0,0,0,0,0,0,0,0,0,0,0,0,0,0,0,0,0,0,0,0,0,0,0,0,0,0,0,0,0,0,0,0,0,0,0,0,0,0,0,0,0,0,0,0,0,0,0,0,0,0,0,0,0,0,0,0,0,0,0,0,0,0,0,0,0,0,0,0,0,0,0,0,0,0,0,0,0,0,0,0,0],"id":1,"left_children":[1,3,5,7,9,11,13,15,17,19,21,23,25,27,29,31,33,35,37,39,41,43,45,-1,-1,47,49,51,53,55,57,-1,59,-1,-1,61,63,65,67,69,71,73,75,77,79,81,-1,83,85,87,89,-1,-1,91,93,95,97,-1,-1,-1,-1,-1,-1,-1,-1,-1,-1,-1,-1,-1,-1,-1,-1,-1,-1,-1,-1,-1,-1,-1,-1,-1,-1,-1,-1,-1,-1,-1,-1,-1,-1,-1,-1,-1,-1,-1,-1,-1,-1],"loss_changes":[3.874061E4,6.6201875E3,6.879459E3,2.3434355E3,2.7506125E3,2.4637388E3,2.5911191E3,7.4172363E2,1.7579219E3,6.1123016E2,1.3500911E3,5.087329E2,1.6315596E3,9.156953E2,3.4181467E2,4.148711E2,3.178877E2,6.225427E2,5.86084E2,6.4744763E2,1.578226E2,1.3640725E3,2.0523853E2,0E0,0E0,1.3953833E3,5.967781E2,2.5844522E2,7.9819727E2,1.6160396E2,6.4231873E0,0E0,6.431885E1,0E0,0E0,1.5526233E2,1.1679294E2,5.8270557E2,8.7152246E2,5.7001575E2,4.7516617E1,1.3355128E2,3.7536972E1,3.8031482E2,2.7382367E2,1.5940479E2,0E0,8.3521277E2,5.5331104E2,2.4210674E2,2.558092E2,0E0,0E0,7.9970703E2,4.5616748E2,2.3824959E0,7.3290253E0,0E0,0E0,0E0,0E0,0E0,0E0,0E0,0E0,0E0,0E0,0E0,0E0,0E0,0E0,0E0,0E0,0E0,0E0,0E0,0E0,0E0,0E0,0E0,0E0,0E0,0E0,0E0,0E0,0E0,0E0,0E0,0E0,0E0,0E0,0E0,0E0,0E0,0E0,0E0,0E0,0E0,0E0],"parents":[2147483647,0,0,1,1,2,2,3,3,4,4,5,5,6,6,7,7,8,8,9,9,10,10,11,11,12,12,13,13,14,14,15,15,16,16,17,17,18,18,19,19,20,20,21,21,22,22,25,25,26,26,27,27,28,28,29,29,30,30,32,32,35,35,36,36,37,37,38,38,39,39,40,40,41,41,42,42,43,43,44,44,45,45,47,47,48,48,49,49,50,50,53,53,54,54,55,55,56,56],"right_children":[2,4,6,8,10,12,14,16,18,20,22,24,26,28,30,32,34,36,38,40,42,44,46,-1,-1,48,50,52,54,56,58,-1,60,-1,-1,62,64,66,68,70,72,74,76,78,80,82,-1,84,86,88,90,-1,-1,92,94,96,98,-1,-1,-1,-1,-1,-1,-1,-1,-1,-1,-1,-1,-1,-1,-1,-1,-1,-1,-1,-1,-1,-1,-1,-1,-1,-1,-1,-1,-1,-1,-1,-1,-1,-1,-1,-1,-1,-1,-1,-1,-1,-1],"split_conditions":[4.6E1,3.3E1,6.4E1,1.9666666E1,1.3797913E1,9.957108E0,2.0945072E1,1.4618837E1,1.2738099E1,3E-1,2.7241266E2,4.8E1,2.6785547E1,5.592917E0,7.5E1,2.258068E2,2.0097082E1,2.756621E2,2.6678857E2,4.4333332E1,1.1874544E1,2.6234348E2,2.2197084E1,-5.171316E-1,6.0285964E0,5.5666668E1,2.506409E2,1.3746156E1,3E-1,2.2314192E1,1.5E0,-5.022888E0,1.4333333E1,-6.271605E0,-3.9369223E-1,4E-1,8.37E0,3.0333334E1,1.5315873E1,3.65E1,1.1928989E1,4E-1,4.7489597E1,1.9878391E1,3.9333332E1,3.5E1,7.4041045E-1,2.824917E1,7.384583E0,8.62E0,3.9E0,2.0284538E0,-2.1897995E0,1.2255418E1,1.5999999E0,2.1650938E1,6.4333336E1,6.959181E-1,2.8278909E0,-2.672287E0,-9.912821E-1,-2.2359884E0,-1.8080293E-1,5.3134754E-2,1.7710073E0,-2.8536685E0,-1.2087278E0,-9.300765E-1,-4.2996817E0,1.5836775E-1,2.596725E0,-2.3232164E0,-4.386183E-1,-1.9348E0,8.519636E-1,-9.589577E-3,-2.0045242E0,-7.6927716E-1,-2.1523888E0,5.0750527E0,1.3237808E0,-4.5592103E0,-2.5406897E0,8.7973326E-1,5.976259E0,5.3321443E0,2.3368733E0,-2.3172998E0,1.6132188E0,-4.155525E0,5.1654285E-1,7.2204075E0,4.321785E0,1.9046146E0,5.0965886E0,7.7201617E-1,1.0520039E-1,-5.106829E-1,-2.2364824E0],"split_indices":[0,0,0,0,3,3,3,3,3,2,4,0,3,1,0,4,1,4,4,0,3,4,1,0,0,0,4,3,2,3,2,0,0,0,0,2,1,0,3,0,3,2,4,3,0,0,0,1,1,1,2,0,0,1,2,3,0,0,0,0,0,0,0,0,0,0,0,0,0,0,0,0,0,0,0,0,0,0,0,0,0,0,0,0,0,0,0,0,0,0,0,0,0,0,0,0,0,0,0],"split_type":[0,0,0,0,0,0,0,0,0,0,0,0,0,0,0,0,0,0,0,0,0,0,0,0,0,0,0,0,0,0,0,0,0,0,0,0,0,0,0,0,0,0,0,0,0,0,0,0,0,0,0,0,0,0,0,0,0,0,0,0,0,0,0,0,0,0,0,0,0,0,0,0,0,0,0,0,0,0,0,0,0,0,0,0,0,0,0,0,0,0,0,0,0,0,0,0,0,0,0],"sum_hessian":[7.49E2,4.35E2,3.14E2,2.26E2,2.09E2,2.27E2,8.7E1,4.2E1,1.84E2,6.1E1,1.48E2,1.3E1,2.14E2,7.7E1,1E1,1.7E1,2.5E1,2.9E1,1.55E2,4.8E1,1.3E1,1.12E2,3.6E1,1E0,1.2E1,2.02E2,1.2E1,4E0,7.3E1,7E0,3E0,6E0,1.1E1,2.4E1,1E0,1.5E1,1.4E1,1.04E2,5.1E1,4.3E1,5E0,7E0,6E0,1.03E2,9E0,3.5E1,1E0,1.31E2,7.1E1,5E0,7E0,3E0,1E0,5.4E1,1.9E1,3E0,4E0,1E0,2E0,4E0,7E0,1E1,5E0,6E0,8E0,7.5E1,2.9E1,9E0,4.2E1,1.2E1,3.1E1,2E0,3E0,1E0,6E0,1E0,5E0,8E1,2.3E1,2E0,7E0,6E0,2.9E1,1.29E2,2E0,6E0,6.5E1,1E0,4E0,6E0,1E0,3.4E1,2E1,1E1,9E0,2E0,1E0,1E0,3E0],"tree_param":{"num_deleted":"0","num_feature":"5","num_nodes":"99","size_leaf_vector":"1"}},{"base_weights":[3.1049424E-3,-3.6409261E0,7.438686E0,-6.687118E0,-5.681979E-1,1.5136269E1,5.7877846E0,-1.0791645E1,-5.1807523E0,6.9772286E0,-1.5807297E0,1.1250952E1,2.5416195E1,6.501275E0,-3.6831753E0,-9.709292E0,-5.2681E0,7.7503306E-1,-5.9388638E0,2.608051E0,9.031415E0,-1.5642145E-1,-4.389279E0,1.2219057E1,-2.9592597E0,2.1411507E0,2.6530382E1,4.4806743E0,1.0945997E1,-9.80179E0,4.709783E0,-1.0202424E1,-2.2443595E0,-7.8097E-1,3.2670128E0,-5.545531E0,-1.218417E1,7.228847E0,-4.3826737E0,6.2035956E0,3.7493083E0,5.1301537E0,-6.569255E-1,-6.5659237E0,2.868202E0,8.49803E0,1.5408957E1,8.315007E0,2.37804E0,7.1321797E0,2.064822E0,1.20166025E1,1.276274E0,-1.212846E1,1.3217343E0,7.075158E0,-8.024356E-1,-2.706398E-1,-3.1590521E0,1.1326528E0,-1.4079612E0,-1.0430251E0,1.1091883E0,-2.0791767E0,-1.4018675E0,-3.9644892E0,-5.906731E-1,3.141742E0,-1.760437E-1,-2.44926E0,-4.1887265E-1,2.4018626E0,4.3849755E-2,-2.9057407E-1,2.7188807E0,1.1264939E-1,-1.1386817E0,-2.5287948E0,-1.184494E0,-8.0448735E-1,1.9931083E0,3.060672E0,-2.8153994E0,5.3573933E0,1.0792208E0,2.4815052E0,-1.8717715E-1,1.1465883E0,-7.820943E-1,2.8425362E0,5.732308E0,-1.4997311E0,1.4358737E0,-4.1449294E0,-1.4129089E0,2.3722754E0,5.6181794E-1,8.942013E-2,-4.5051613E-1],"categories":[],"categories_nodes":[],"categories_segments":[],"categories_sizes":[],"default_left":[0,0,0,0,0,0,0,0,0,0,0,0,0,0,0,0,0,0,0,0,0,0,0,0,0,0,0,0,0,0,0,0,0,0,0,0,0,0,0,0,0,0,0,0,0,0,0,0,0,0,0,0,0,0,0,0,0,0,0,0,0,0,0,0,0,0,0,0,0,0,0,0,0,0,0,0,0,0,0,0,0,0,0,0,0,0,0,0,0,0,0,0,0,0,0,0,0,0,0],"id":2,"left_children":[1,3,5,7,9,11,13,15,17,19,21,23,25,27,29,31,-1,33,35,37,39,41,43,45,-1,-1,47,49,51,53,55,57,59,61,-1,63,65,67,69,71,-1,73,75,77,79,81,83,-1,-1,85,87,89,91,93,-1,95,97,-1,-1,-1,-1,-1,-1,-1,-1,-1,-1,-1,-1,-1,-1,-1,-1,-1,-1,-1,-1,-1,-1,-1,-1,-1,-1,-1,-1,-1,-1,-1,-1,-1,-1,-1,-1,-1,-1,-1,-1,-1,-1],"loss_changes":[2.03487E4,4.7137007E3,3.0512598E3,1.5083701E3,1.936305E3,1.4314961E3,1.4092192E3,3.203501E2,8.4893604E2,2.4569873E2,8.9136694E2,7.9510645E2,3.4677246E1,1.6663271E3,8.164636E2,1.9797363E2,0E0,3.5476248E2,3.402085E2,3.8701154E2,1.1850952E2,3.97617E2,1.2036042E3,2.4888477E2,0E0,0E0,9.9121094E-1,8.3722437E2,5.954585E2,3.5094214E2,9.6946594E1,1.6119775E2,9.142784E1,2.5430287E2,0E0,1.5858203E2,6.874927E1,1.8360287E2,4.5067154E1,1.407793E2,0E0,3.20583E2,4.4536646E2,2.4962134E2,3.9497577E2,6.138342E2,3.9858545E2,0E0,0E0,5.6196216E2,5.9280334E2,7.741113E2,1.7811171E2,3.5110107E1,0E0,6.844452E0,2.756308E0,0E0,0E0,0E0,0E0,0E0,0E0,0E0,0E0,0E0,0E0,0E0,0E0,0E0,0E0,0E0,0E0,0E0,0E0,0E0,0E0,0E0,0E0,0E0,0E0,0E0,0E0,0E0,0E0,0E0,0E0,0E0,0E0,0E0,0E0,0E0,0E0,0E0,0E0,0E0,0E0,0E0,0E0],"parents":[2147483647,0,0,1,1,2,2,3,3,4,4,5,5,6,6,7,7,8,8,9,9,10,10,11,11,12,12,13,13,14,14,15,15,17,17,18,18,19,19,20,20,21,21,22,22,23,23,26,26,27,27,28,28,29,29,30,30,31,31,32,32,33,33,35,35,36,36,37,37,38,38,39,39,41,41,42,42,43,43,44,44,45,45,46,46,49,49,50,50,51,51,52,52,53,53,55,55,56,56],"right_children":[2,4,6,8,10,12,14,16,18,20,22,24,26,28,30,32,-1,34,36,38,40,42,44,46,-1,-1,48,50,52,54,56,58,60,62,-1,64,66,68,70,72,-1,74,76,78,80,82,84,-1,-1,86,88,90,92,94,-1,96,98,-1,-1,-1,-1,-1,-1,-1,-1,-1,-1,-1,-1,-1,-1,-1,-1,-1,-1,-1,-1,-1,-1,-1,-1,-1,-1,-1,-1,-1,-1,-1,-1,-1,-1,-1,-1,-1,-1,-1,-1,-1,-1],"split_conditions":[5E1,3.4333332E1,1.1753877E1,2.2333334E1,1.1440978E1,2.9408362E2,3.0815723E2,2.7551172E1,1.1874544E1,2.6210086E2,1.7873556E1,2.4E0,5.1666668E1,6.4E1,3.2355878E2,2.0497084E1,-5.2681E0,1.1659777E1,3.1259941E1,4.3666668E1,4.1666668E1,8.134583E0,2.4255419E1,6.5E1,-2.9592597E0,2.1411507E0,1.3503333E1,1.5815435E1,2.0945072E1,7.2666664E1,6.6E1,1.0233123E1,2.06825E1,4E-1,3.2670128E0,2.111924E2,2.1109585E1,1E-1,4.7E1,3.9333332E1,3.7493083E0,1.35515E1,2.8000775E2,1.6240835E1,3.9E1,6.1333332E1,2E-1,8.315007E0,2.37804E0,6.2333332E1,2.5965585E2,1.7414474E1,6.5333336E1,9.397082E0,1.3217343E0,1.3657501E1,7.2E1,-2.706398E-1,-3.1590521E0,1.1326528E0,-1.4079612E0,-1.0430251E0,1.1091883E0,-2.0791767E0,-1.4018675E0,-3.9644892E0,-5.906731E-1,3.141742E0,-1.760437E-1,-2.44926E0,-4.1887265E-1,2.4018626E0,4.3849755E-2,-2.9057407E-1,2.7188807E0,1.1264939E-1,-1.1386817E0,-2.5287948E0,-1.184494E0,-8.0448735E-1,1.9931083E0,3.060672E0,-2.8153994E0,5.3573933E0,1.0792208E0,2.4815052E0,-1.8717715E-1,1.1465883E0,-7.820943E-1,2.8425362E0,5.732308E0,-1.4997311E0,1.4358737E0,-4.1449294E0,-1.4129089E0,2.3722754E0,5.6181794E-1,8.942013E-2,-4.5051613E-1],"split_indices":[0,0,3,0,3,4,4,3,3,4,3,2,0,0,4,1,0,3,3,0,0,1,1,0,0,0,1,3,3,0,0,3,1,2,0,4,1,2,0,0,0,3,4,1,0,0,2,0,0,0,4,3,0,1,0,1,0,0,0,0,0,0,0,0,0,0,0,0,0,0,0,0,0,0,0,0,0,0,0,0,0,0,0,0,0,0,0,0,0,0,0,0,0,0,0,0,0,0,0],"split_type":[0,0,0,0,0,0,0,0,0,0,0,0,0,0,0,0,0,0,0,0,0,0,0,0,0,0,0,0,0,0,0,0,0,0,0,0,0,0,0,0,0,0,0,0,0,0,0,0,0,0,0,0,0,0,0,0,0,0,0,0,0,0,0,0,0,0,0,0,0,0,0,0,0,0,0,0,0,0,0,0,0,0,0,0,0,0,0,0,0,0,0,0,0,0,0,0,0,0,0],"sum_hessian":[7.49E2,5.03E2,2.46E2,2.52E2,2.51E2,4.2E1,2.04E2,6.6E1,1.86E2,2.9E1,2.22E2,3.2E1,1E1,1.9E2,1.4E1,5.9E1,7E0,2.1E1,1.65E2,1E1,1.9E1,1.48E2,7.4E1,3.1E1,1E0,1E0,9E0,1.32E2,5.8E1,8E0,6E0,5.5E1,4E0,1.9E1,2E0,1.57E2,8E0,6E0,4E0,1.2E1,7E0,1.2E1,1.36E2,5.7E1,1.7E1,1.6E1,1.5E1,8E0,1E0,6.2E1,7E1,5.2E1,6E0,7E0,1E0,4E0,2E0,2E0,5.3E1,1E0,3E0,1.2E1,7E0,5.8E1,9.9E1,7E0,1E0,4E0,2E0,1E0,3E0,9E0,3E0,5E0,7E0,1.03E2,3.3E1,3.2E1,2.5E1,7E0,1E1,1.5E1,1E0,1.2E1,3E0,5.4E1,8E0,5.1E1,1.9E1,4E1,1.2E1,2E0,4E0,5E0,2E0,3E0,1E0,1E0,1E0],"tree_param":{"num_deleted":"0","num_feature":"5","num_nodes":"99","size_leaf_vector":"1"}},{"base_weights":[2.5583755E-2,-2.6380725E0,5.175913E0,-4.9957848E0,-6.386716E-1,1.0980431E1,3.9853978E0,-8.766212E0,-4.092411E0,2.263449E0,-1.7932032E0,7.9884734E0,1.8958082E1,5.115952E0,4.5454535E-1,-5.2841516E0,-1.1061931E1,1.4010582E0,-4.692911E0,2.8667936E0,-4.17954E0,-6.502797E-1,-4.799977E0,9.057313E0,-5.71903E0,2.0620886E1,2.2950933E0,4.548617E0,1.9108568E1,1.3635996E1,-8.99777E-1,-3.1453247E0,-2.6780279E0,-1.1488554E1,-1.2344399E-1,-3.4718728E-1,2.4131327E0,-4.331461E0,-1.0557099E1,1.4796576E0,7.9467907E0,-2.0317895E0,-5.41564E-1,-1.1809286E0,5.1526065E0,-6.0896654E0,-1.1267886E0,5.6407714E0,6.91718E0,-2.5153708E0,-5.8192637E-2,1.819978E0,6.5045543E0,6.9084473E0,2.3614373E0,6.8924885E0,8.708146E0,-3.646311E-1,5.2958145E0,-2.6631825E0,4.1883597E0,1.18283965E-1,-1.1839137E0,-3.5318015E0,-7.430809E-1,-1.2027088E0,1.1447351E0,-2.6437476E-1,-1.4214926E0,-3.9806058E0,-1.1551337E0,7.02549E-1,-1.5039785E0,1.9836846E-1,3.1607926E0,1.388815E-1,-3.0921325E-1,-6.495211E-1,6.515138E-1,2.5050907E0,-9.991079E-1,-4.360243E0,-1.5721177E0,-1.9712758E0,6.486758E-2,2.341269E0,-8.3418816E-1,3.1810539E0,4.835527E-1,1.260256E0,-2.3598757E0,2.7457967E0,1.6798211E-2,-2.0545318E0,-1.140965E-1,2.0978777E0,-7.4736215E-2],"categories":[],"categories_nodes":[],"categories_segments":[],"categories_sizes":[],"default_left":[0,0,0,0,0,0,0,0,0,0,0,0,0,0,0,0,0,0,0,0,0,0,0,0,0,0,0,0,0,0,0,0,0,0,0,0,0,0,0,0,0,0,0,0,0,0,0,0,0,0,0,0,0,0,0,0,0,0,0,0,0,0,0,0,0,0,0,0,0,0,0,0,0,0,0,0,0,0,0,0,0,0,0,0,0,0,0,0,0,0,0,0,0,0,0,0,0],"id":3,"left_children":[1,3,5,7,9,11,13,15,17,19,21,23,25,27,29,31,33,35,37,39,41,43,45,47,49,51,-1,53,55,57,59,-1,61,63,-1,65,-1,67,69,71,73,-1,75,77,79,81,83,-1,85,-1,-1,-1,-1,87,89,91,-1,-1,-1,93,95,-1,-1,-1,-1,-1,-1,-1,-1,-1,-1,-1,-1,-1,-1,-1,-1,-1,-1,-1,-1,-1,-1,-1,-1,-1,-1,-1,-1,-1,-1,-1,-1,-1,-1,-1,-1],"loss_changes":[1.0302684E4,2.3302456E3,1.725292E3,7.3731104E2,9.053675E2,8.749121E2,8.519241E2,2.8528174E2,6.1685815E2,3.113073E2,6.601254E2,5.352864E2,4.907251E1,1.1991201E3,9.584218E2,2.2942047E2,1.0886621E2,2.234416E2,3.0824805E2,4.885534E2,6.2367416E1,4.4026544E2,2.442135E2,5.1647974E2,4.255535E1,7.438965E0,0E0,7.9402124E2,5.26928E2,3.1972577E2,4.5080432E2,0E0,5.611068E1,3.2288086E1,0E0,2.5920386E2,0E0,2.1901392E2,1.1258069E2,3.3082697E2,2.7598828E2,0E0,2.442552E0,4.3363348E2,3.5332074E2,2.035304E2,1.1109393E2,0E0,2.5396631E2,0E0,0E0,0E0,0E0,1.4507571E3,1.5945217E3,6.1293976E1,0E0,0E0,0E0,3.5090662E2,1.6352974E2,0E0,0E0,0E0,0E0,0E0,0E0,0E0,0E0,0E0,0E0,0E0,0E0,0E0,0E0,0E0,0E0,0E0,0E0,0E0,0E0,0E0,0E0,0E0,0E0,0E0,0E0,0E0,0E0,0E0,0E0,0E0,0E0,0E0,0E0,0E0,0E0],"parents":[2147483647,0,0,1,1,2,2,3,3,4,4,5,5,6,6,7,7,8,8,9,9,10,10,11,11,12,12,13,13,14,14,15,15,16,16,17,17,18,18,19,19,20,20,21,21,22,22,23,23,24,24,25,25,27,27,28,28,29,29,30,30,32,32,33,33,35,35,37,37,38,38,39,39,40,40,42,42,43,43,44,44,45,45,46,46,48,48,53,53,54,54,55,55,59,59,60,60],"right_children":[2,4,6,8,10,12,14,16,18,20,22,24,26,28,30,32,34,36,38,40,42,44,46,48,50,52,-1,54,56,58,60,-1,62,64,-1,66,-1,68,70,72,74,-1,76,78,80,82,84,-1,86,-1,-1,-1,-1,88,90,92,-1,-1,-1,94,96,-1,-1,-1,-1,-1,-1,-1,-1,-1,-1,-1,-1,-1,-1,-1,-1,-1,-1,-1,-1,-1,-1,-1,-1,-1,-1,-1,-1,-1,-1,-1,-1,-1,-1,-1,-1],"split_conditions":[4.9333332E1,3.3E1,1.1753877E1,1.9666666E1,1.375558E1,2.9408362E2,1.9826164E1,1.488242E1,1.1874544E1,3.1948627E2,2.7241266E2,2.1E0,1E-1,1.9602652E1,5.1E1,1.174202E2,2.0097082E1,1.1659777E1,3.1259941E1,3.0134512E2,4E1,2.6234348E2,3.048861E2,2.5240408E1,5.35E1,5.1666668E1,2.2950933E0,1.3755417E1,5.7333332E1,2.1503334E1,6.5333336E1,-3.1453247E0,8.62E0,4.2999997E0,-1.2344399E-1,2.8E1,2.4131327E0,9.695001E0,1.5172084E1,1.8000001E0,3.65E1,-2.0317895E0,4.3E1,4.5333332E1,5E-1,1.405845E1,3.5E1,5.6407714E0,2.0222082E1,-2.5153708E0,-5.8192637E-2,1.819978E0,6.5045543E0,2.9408362E2,2.4534608E2,5.6E1,8.708146E0,-3.646311E-1,5.2958145E0,2.1791153E1,2.9952084E2,1.18283965E-1,-1.1839137E0,-3.5318015E0,-7.430809E-1,-1.2027088E0,1.1447351E0,-2.6437476E-1,-1.4214926E0,-3.9806058E0,-1.1551337E0,7.02549E-1,-1.5039785E0,1.9836846E-1,3.1607926E0,1.388815E-1,-3.0921325E-1,-6.495211E-1,6.515138E-1,2.5050907E0,-9.991079E-1,-4.360243E0,-1.5721177E0,-1.9712758E0,6.486758E-2,2.341269E0,-8.3418816E-1,3.1810539E0,4.835527E-1,1.260256E0,-2.3598757E0,2.7457967E0,1.6798211E-2,-2.0545318E0,-1.140965E-1,2.0978777E0,-7.4736215E-2],"split_indices":[0,0,3,0,3,4,3,3,3,4,4,2,2,3,0,4,1,3,3,4,0,4,4,4,0,0,0,1,0,1,0,0,1,2,0,0,0,1,1,2,0,0,0,0,2,3,0,0,1,0,0,0,0,4,4,0,0,0,0,3,4,0,0,0,0,0,0,0,0,0,0,0,0,0,0,0,0,0,0,0,0,0,0,0,0,0,0,0,0,0,0,0,0,0,0,0,0],"split_type":[0,0,0,0,0,0,0,0,0,0,0,0,0,0,0,0,0,0,0,0,0,0,0,0,0,0,0,0,0,0,0,0,0,0,0,0,0,0,0,0,0,0,0,0,0,0,0,0,0,0,0,0,0,0,0,0,0,0,0,0,0,0,0,0,0,0,0,0,0,0,0,0,0,0,0,0,0,0,0,0,0,0,0,0,0,0,0,0,0,0,0,0,0,0,0,0,0],"sum_hessian":[7.49E2,4.94E2,2.55E2,2.26E2,2.68E2,4.2E1,2.13E2,4.2E1,1.84E2,7.6E1,1.92E2,3.2E1,1E1,1.61E2,5.2E1,1.8E1,2.4E1,1.8E1,1.66E2,7E1,6E0,1.4E2,5.2E1,3E1,2E0,8E0,2E0,1.56E2,5E0,4E0,4.8E1,5E0,1.3E1,2.3E1,1E0,1.5E1,3E0,1.58E2,8E0,5.6E1,1.4E1,3E0,3E0,1.29E2,1.1E1,3.8E1,1.4E1,4E0,2.6E1,1E0,1E0,1E0,7E0,7.4E1,8.2E1,3E0,2E0,1E0,3E0,3.6E1,1.2E1,4E0,9E0,2.2E1,1E0,8E0,7E0,1.7E1,1.41E2,5E0,3E0,5E1,6E0,4E0,1E1,1E0,2E0,1E2,2.9E1,8E0,3E0,2E0,3.6E1,2E0,1.2E1,2.4E1,2E0,4.3E1,3.1E1,7E1,1.2E1,2E0,1E0,1.2E1,2.4E1,7E0,5E0],"tree_param":{"num_deleted":"0","num_feature":"5","num_nodes":"97","size_leaf_vector":"1"}},{"base_weights":[3.7861254E-2,-1.8550599E0,3.9001865E0,-4.339789E0,-8.296123E-1,5.624832E0,1.7010843E0,-5.703943E0,-9.0779E-1,3.2662187E0,-1.2976749E0,3.229932E0,8.042671E0,6.952134E-1,1.1690271E1,-4.1211243E0,-8.501524E0,-5.501159E0,6.5084183E-1,5.8595914E-1,4.377638E0,-5.9993446E-1,-3.2360811E0,4.671532E0,-7.22015E0,5.211703E0,1.1064645E1,-7.4172873E0,1.3782431E0,1.4842764E1,-6.131337E-1,-4.516842E0,6.090275E0,-1.1931803E1,-5.319797E0,-6.904853E0,-1.3184824E0,-2.8457837E0,2.5285084E0,3.5061493E0,-4.203537E0,2.756567E0,7.6804767E0,3.8255867E-1,-2.4057262E0,-4.5332026E0,8.22108E0,6.161695E0,-2.9330282E0,1.3538704E0,-1.1732805E1,1.6281949E-1,7.6286545E0,7.903931E0,1.56738405E1,-1.4550886E0,-1.07035885E1,-1.8318985E0,3.4941578E0,1.9482061E1,6.1658096E-1,-2.5366974E-1,-2.2240449E-2,-9.301215E-1,-1.9893626E0,-1.0492745E-1,2.8455513E0,-3.7703414E0,-1.4323575E0,-8.195485E-1,-2.5400658E0,-1.562645E-1,-2.3227313E0,1.7678338E-1,-1.0562645E0,5.174395E-1,-1.3682866E0,1.2600727E0,-4.9614355E-1,1.889512E0,-2.5820017E-1,-2.1872532E0,-4.8269978E-1,-1.964452E-1,1.3144268E0,2.620298E0,9.0378577E-1,1.1793362E0,-3.3711016E-2,-1.8994372E-1,-1.4607747E0,-2.3129294E0,-7.024718E-1,-3.1974623E-1,2.8545508E0,2.9416857E0,1.2022551E0,-3.0703022E0,-5.2009586E-2,-1.20936975E-1,9.9372774E-1,-6.704636E-2,-4.1969914E0,1.7544813E0,-1.6637676E0,2.8060594E0,-3.4246695E-1,3.5024345E0,9.5085956E-2,6.9033527E0,2.1436732E0,-1.2441221E0,2.473793E-1,-3.6100726E0,-8.075467E-1,2.6546624E0,-8.0132306E-1,1.5027182E0,-6.05555E-1,4.756302E-1,6.8232903E0,2.2024837E0,-1.9250222E0],"categories":[],"categories_nodes":[],"categories_segments":[],"categories_sizes":[],"default_left":[0,0,0,0,0,0,0,0,0,0,0,0,0,0,0,0,0,0,0,0,0,0,0,0,0,0,0,0,0,0,0,0,0,0,0,0,0,0,0,0,0,0,0,0,0,0,0,0,0,0,0,0,0,0,0,0,0,0,0,0,0,0,0,0,0,0,0,0,0,0,0,0,0,0,0,0,0,0,0,0,0,0,0,0,0,0,0,0,0,0,0,0,0,0,0,0,0,0,0,0,0,0,0,0,0,0,0,0,0,0,0,0,0,0,0,0,0,0,0,0,0,0,0],"id":4,"left_children":[1,3,5,7,9,11,13,15,17,19,21,23,25,27,29,31,33,35,37,39,41,43,45,47,49,51,53,55,57,59,61,63,65,67,69,71,73,75,77,79,81,83,85,87,89,91,93,95,97,99,101,103,105,107,109,111,113,115,117,119,121,-1,-1,-1,-1,-1,-1,-1,-1,-1,-1,-1,-1,-1,-1,-1,-1,-1,-1,-1,-1,-1,-1,-1,-1,-1,-1,-1,-1,-1,-1,-1,-1,-1,-1,-1,-1,-1,-1,-1,-1,-1,-1,-1,-1,-1,-1,-1,-1,-1,-1,-1,-1,-1,-1,-1,-1,-1,-1,-1,-1,-1,-1],"loss_changes":[5.490543E3,1.2805707E3,9.2722217E2,6.8304297E2,6.9056213E2,7.731089E2,1.097134E3,4.2991064E2,3.1143338E2,1.0765387E2,4.3356488E2,1.1033328E3,5.2408203E2,5.6987177E2,3.9696472E2,3.0632605E2,3.4035107E2,5.5479248E1,2.23857E2,1.825731E2,1.1803583E2,4.2317468E2,1.3004808E3,7.319906E2,3.641091E2,4.5026538E2,3.42302E2,1.4117401E2,6.4488513E2,5.159839E2,3.13156E-1,1.8009668E2,6.8907234E1,1.737915E1,1.4790588E2,3.874402E1,1.8881378E1,1.01938705E2,1.6076434E2,1.0296582E2,2.831971E1,1.0818616E2,1.3040558E1,2.7266595E2,3.6372772E2,5.180094E2,1.1830426E2,3.7673572E2,2.198665E2,1.5099991E1,1.5274408E2,4.5436972E2,3.8886572E2,5.9709607E2,5.864685E2,2.7967194E1,2.0885437E1,3.6423282E2,4.8612708E2,3.1423877E2,1.8900713E2,0E0,0E0,0E0,0E0,0E0,0E0,0E0,0E0,0E0,0E0,0E0,0E0,0E0,0E0,0E0,0E0,0E0,0E0,0E0,0E0,0E0,0E0,0E0,0E0,0E0,0E0,0E0,0E0,0E0,0E0,0E0,0E0,0E0,0E0,0E0,0E0,0E0,0E0,0E0,0E0,0E0,0E0,0E0,0E0,0E0,0E0,0E0,0E0,0E0,0E0,0E0,0E0,0E0,0E0,0E0,0E0,0E0,0E0,0E0,0E0,0E0,0E0],"parents":[2147483647,0,0,1,1,2,2,3,3,4,4,5,5,6,6,7,7,8,8,9,9,10,10,11,11,12,12,13,13,14,14,15,15,16,16,17,17,18,18,19,19,20,20,21,21,22,22,23,23,24,24,25,25,26,26,27,27,28,28,29,29,30,30,31,31,32,32,33,33,34,34,35,35,36,36,37,37,38,38,39,39,40,40,41,41,42,42,43,43,44,44,45,45,46,46,47,47,48,48,49,49,50,50,51,51,52,52,53,53,54,54,55,55,56,56,57,57,58,58,59,59,60,60],"right_children":[2,4,6,8,10,12,14,16,18,20,22,24,26,28,30,32,34,36,38,40,42,44,46,48,50,52,54,56,58,60,62,64,66,68,70,72,74,76,78,80,82,84,86,88,90,92,94,96,98,100,102,104,106,108,110,112,114,116,118,120,122,-1,-1,-1,-1,-1,-1,-1,-1,-1,-1,-1,-1,-1,-1,-1,-1,-1,-1,-1,-1,-1,-1,-1,-1,-1,-1,-1,-1,-1,-1,-1,-1,-1,-1,-1,-1,-1,-1,-1,-1,-1,-1,-1,-1,-1,-1,-1,-1,-1,-1,-1,-1,-1,-1,-1,-1,-1,-1,-1,-1,-1,-1],"split_conditions":[5E1,2.8666666E1,1.5815435E1,4E-1,1.1384198E1,2.6329977E2,2.6642916E1,1.858451E1,7.941711E1,2.6210086E2,1.8947083E1,2.4893646E2,6.3333332E1,1.6071491E1,5E-1,1.8514643E1,1.19783325E1,6.4999995E0,2.2333334E1,4.3666668E1,4.1666668E1,2E-1,2.6430418E1,2.3000002E0,5.2E1,8.37E0,1.3084402E1,5.2666668E1,5.6333332E1,2.1230728E2,5.5666668E1,1.5546833E1,1.8333334E1,3.0862277E2,2.3699689E2,5E-1,2.6E1,8.000001E-1,2.7666666E1,3E-1,4.7E1,9.957108E0,1.0424167E1,8.532499E0,1.963667E1,1.5172084E1,1.9272614E1,1.2475961E1,9.940835E0,1E-1,8.290834E0,2.865134E2,6.2333332E1,1.1570515E1,2.9408362E2,5.1666668E1,6.9666664E1,5.05E1,2.9952084E2,1.7015474E1,5.3666668E1,-2.5366974E-1,-2.2240449E-2,-9.301215E-1,-1.9893626E0,-1.0492745E-1,2.8455513E0,-3.7703414E0,-1.4323575E0,-8.195485E-1,-2.5400658E0,-1.562645E-1,-2.3227313E0,1.7678338E-1,-1.0562645E0,5.174395E-1,-1.3682866E0,1.2600727E0,-4.9614355E-1,1.889512E0,-2.5820017E-1,-2.1872532E0,-4.8269978E-1,-1.964452E-1,1.3144268E0,2.620298E0,9.0378577E-1,1.1793362E0,-3.3711016E-2,-1.8994372E-1,-1.4607747E0,-2.3129294E0,-7.024718E-1,-3.1974623E-1,2.8545508E0,2.9416857E0,1.2022551E0,-3.0703022E0,-5.2009586E-2,-1.20936975E-1,9.9372774E-1,-6.704636E-2,-4.1969914E0,1.7544813E0,-1.6637676E0,2.8060594E0,-3.4246695E-1,3.5024345E0,9.5085956E-2,6.9033527E0,2.1436732E0,-1.2441221E0,2.473793E-1,-3.6100726E0,-8.075467E-1,2.6546624E0,-8.0132306E-1,1.5027182E0,-6.05555E-1,4.756302E-1,6.8232903E0,2.2024837E0,-1.9250222E0],"split_indices":[0,0,3,2,3,4,1,3,4,4,3,4,0,3,2,3,1,2,0,0,0,2,1,2,0,1,3,0,0,4,0,3,0,4,4,2,0,2,0,2,0,3,1,1,1,1,3,3,1,2,1,4,0,3,4,0,0,0,4,3,0,0,0,0,0,0,0,0,0,0,0,0,0,0,0,0,0,0,0,0,0,0,0,0,0,0,0,0,0,0,0,0,0,0,0,0,0,0,0,0,0,0,0,0,0,0,0,0,0,0,0,0,0,0,0,0,0,0,0,0,0,0,0],"split_type":[0,0,0,0,0,0,0,0,0,0,0,0,0,0,0,0,0,0,0,0,0,0,0,0,0,0,0,0,0,0,0,0,0,0,0,0,0,0,0,0,0,0,0,0,0,0,0,0,0,0,0,0,0,0,0,0,0,0,0,0,0,0,0,0,0,0,0,0,0,0,0,0,0,0,0,0,0,0,0,0,0,0,0,0,0,0,0,0,0,0,0,0,0,0,0,0,0,0,0,0,0,0,0,0,0,0,0,0,0,0,0,0,0,0,0,0,0,0,0,0,0,0,0],"sum_hessian":[7.49E2,5.03E2,2.46E2,1.46E2,3.57E2,1.37E2,1.09E2,1.04E2,4.2E1,3.6E1,3.21E2,7E1,6.7E1,1E2,9E0,6.8E1,3.6E1,1E1,3.2E1,1.1E1,2.5E1,2.37E2,8.4E1,6.2E1,8E0,3.6E1,3.1E1,7E0,9.3E1,7E0,2E0,6.6E1,2E0,1.6E1,2E1,7E0,3E0,1.1E1,2.1E1,7E0,4E0,1.8E1,7E0,1.54E2,8.3E1,7.6E1,8E0,5.2E1,1E1,3E0,5E0,1.2E1,2.4E1,2E1,1.1E1,3E0,4E0,3.7E1,5.6E1,5E0,2E0,1E0,1E0,4.1E1,2.5E1,1E0,1E0,1.4E1,2E0,1.2E1,8E0,1E0,6E0,2E0,1E0,3E0,8E0,1.5E1,6E0,4E0,3E0,1E0,3E0,6E0,1.2E1,5E0,2E0,1.8E1,1.36E2,4.9E1,3.4E1,3E1,4.6E1,1E0,7E0,1.8E1,3.4E1,2E0,8E0,2E0,1E0,1E0,4E0,6E0,6E0,2E1,4E0,1.3E1,7E0,5E0,6E0,1E0,2E0,3E0,1E0,2E0,3.5E1,4.4E1,1.2E1,1E0,4E0,1E0,1E0],"tree_param":{"num_deleted":"0","num_feature":"5","num_nodes":"123","size_leaf_vector":"1"}},{"base_weights":[3.7032206E-2,-1.9190552E0,1.9982371E0,-1.2561474E0,-3.7361195E0,7.416185E-1,3.7967508E0,5.230629E0,-1.4190673E0,-4.3837667E0,5.4945884E0,2.2075944E0,-6.4157295E-1,4.75176E0,-3.090121E-1,2.331595E0,2.495643E0,-2.3908625E0,-5.9527224E-1,-5.552062E0,-5.8165595E-2,2.7076511E0,3.332432E0,6.185929E0,1.2331328E0,-1.1965967E0,4.714706E0,4.3349943E0,1.3887132E1,1.3295399E0,-3.71907E0,1.0487157E0,3.9027277E-1,-5.6576858E0,-2.116791E0,6.775903E-1,-2.6392736E0,-7.232404E0,-3.7698326E0,-2.4921212E0,3.4640112E0,9.453297E-2,1.5867776E0,4.461951E0,3.2430809E0,-6.1916776E0,2.3742316E0,4.694305E-1,-2.96983E0,8.451705E-1,3.3825305E0,3.8758745E0,1.1258394E1,5.495298E0,-5.7524705E-1,2.5387166E0,1.3332488E-1,-1.0679881E1,7.89832E-1,2.3258458E-1,-5.6961823E-2,-1.9012734E0,-3.2782175E-2,-8.3262396E-1,-1.3566459E-2,3.3180847E0,2.3989426E-2,-9.179584E-1,1.7853768E0,-3.920551E0,-1.7736369E0,-6.543951E-2,-1.9028919E0,8.560616E-1,-1.1170417E0,2.0750115E0,-7.743096E-1,2.1900253E-1,-2.7178404E-1,1.7536E0,-1.1826836E0,-4.5156386E-1,-2.275976E0,1.1308177E0,-2.0354348E-1,-1.1476417E0,6.087861E-1,-4.1292012E-1,-2.0106905E0,1.0399417E0,-2.6255913E0,1.9926337E0,8.4642386E-1,6.988479E0,1.610945E0,-1.0374073E0,9.1787434E-1,-5.4358524E-1,-3.9095626E0,7.987015E-1,-7.7828676E-1],"categories":[],"categories_nodes":[],"categories_segments":[],"categories_sizes":[],"default_left":[0,0,0,0,0,0,0,0,0,0,0,0,0,0,0,0,0,0,0,0,0,0,0,0,0,0,0,0,0,0,0,0,0,0,0,0,0,0,0,0,0,0,0,0,0,0,0,0,0,0,0,0,0,0,0,0,0,0,0,0,0,0,0,0,0,0,0,0,0,0,0,0,0,0,0,0,0,0,0,0,0,0,0,0,0,0,0,0,0,0,0,0,0,0,0,0,0,0,0,0,0],"id":5,"left_children":[1,3,5,7,9,11,13,15,17,19,21,23,25,27,29,31,-1,33,35,37,39,41,-1,43,45,47,49,51,53,55,57,-1,59,61,63,65,67,69,71,73,75,77,-1,79,-1,81,83,85,87,89,-1,91,93,-1,-1,-1,95,97,99,-1,-1,-1,-1,-1,-1,-1,-1,-1,-1,-1,-1,-1,-1,-1,-1,-1,-1,-1,-1,-1,-1,-1,-1,-1,-1,-1,-1,-1,-1,-1,-1,-1,-1,-1,-1,-1,-1,-1,-1,-1,-1],"loss_changes":[2.881051E3,4.482163E2,8.4470154E2,3.001631E2,6.2191125E2,4.5157135E2,6.0530884E2,4.3273087E1,2.1552856E2,4.747135E2,7.9434784E1,4.1105927E2,3.4752075E2,4.157124E2,1.7257137E2,9.93541E0,0E0,9.9046326E1,3.868448E2,1.9434717E2,1.88662E2,3.997626E1,0E0,1.1918262E2,7.6027527E2,3.115909E2,2.6971307E2,3.4098315E2,3.8523804E2,1.780526E2,3.2229147E2,0E0,8.172889E-1,3.3258392E1,1.581427E2,5.699721E2,2.24155E2,2.0783313E2,3.458994E2,9.619606E1,2.0569736E2,3.20447E0,0E0,2.2069043E2,0E0,6.7026825E1,3.3050198E2,3.7623166E2,2.9409396E2,2.3159445E2,0E0,3.167024E2,3.7105707E2,0E0,0E0,0E0,2.1025507E2,5.9816162E1,5.1264393E1,0E0,0E0,0E0,0E0,0E0,0E0,0E0,0E0,0E0,0E0,0E0,0E0,0E0,0E0,0E0,0E0,0E0,0E0,0E0,0E0,0E0,0E0,0E0,0E0,0E0,0E0,0E0,0E0,0E0,0E0,0E0,0E0,0E0,0E0,0E0,0E0,0E0,0E0,0E0,0E0,0E0,0E0],"parents":[2147483647,0,0,1,1,2,2,3,3,4,4,5,5,6,6,7,7,8,8,9,9,10,10,11,11,12,12,13,13,14,14,15,15,17,17,18,18,19,19,20,20,21,21,23,23,24,24,25,25,26,26,27,27,28,28,29,29,30,30,32,32,33,33,34,34,35,35,36,36,37,37,38,38,39,39,40,40,41,41,43,43,45,45,46,46,47,47,48,48,49,49,51,51,52,52,56,56,57,57,58,58],"right_children":[2,4,6,8,10,12,14,16,18,20,22,24,26,28,30,32,-1,34,36,38,40,42,-1,44,46,48,50,52,54,56,58,-1,60,62,64,66,68,70,72,74,76,78,-1,80,-1,82,84,86,88,90,-1,92,94,-1,-1,-1,96,98,100,-1,-1,-1,-1,-1,-1,-1,-1,-1,-1,-1,-1,-1,-1,-1,-1,-1,-1,-1,-1,-1,-1,-1,-1,-1,-1,-1,-1,-1,-1,-1,-1,-1,-1,-1,-1,-1,-1,-1,-1,-1,-1],"split_conditions":[4.1666668E1,1.8947083E1,5.7E1,9.387651E0,2.6928337E1,1.5459054E1,1.9881649E1,3.8E1,3.0333334E1,5E-1,3.8333332E1,4.4333332E1,2.6515833E1,9.1333336E1,2.8843512E2,1.0517917E1,2.495643E0,5.0754604E1,2E-1,1.5172084E1,2.614404E2,2.3675304E1,3.332432E0,1.3891522E1,4.6333332E1,1.7795E1,2.1413193E1,2.75075E1,1.07E2,5.8E1,6.3E1,1.0487157E0,3.5666668E1,4E0,6E-1,3.1E1,1.8792551E1,2.1428688E2,1.8567919E1,1.9878391E1,2.8209467E2,2.7186666E1,1.5867776E0,1.375558E1,3.2430809E0,8.342917E0,3E-1,1.1509583E1,2.4534608E2,2.7186666E1,3.3825305E0,9.065833E0,2.7722082E1,5.495298E0,-5.7524705E-1,2.5387166E0,2.1714128E2,5.8E1,2.2314192E1,2.3258458E-1,-5.6961823E-2,-1.9012734E0,-3.2782175E-2,-8.3262396E-1,-1.3566459E-2,3.3180847E0,2.3989426E-2,-9.179584E-1,1.7853768E0,-3.920551E0,-1.7736369E0,-6.543951E-2,-1.9028919E0,8.560616E-1,-1.1170417E0,2.0750115E0,-7.743096E-1,2.1900253E-1,-2.7178404E-1,1.7536E0,-1.1826836E0,-4.5156386E-1,-2.275976E0,1.1308177E0,-2.0354348E-1,-1.1476417E0,6.087861E-1,-4.1292012E-1,-2.0106905E0,1.0399417E0,-2.6255913E0,1.9926337E0,8.4642386E-1,6.988479E0,1.610945E0,-1.0374073E0,9.1787434E-1,-5.4358524E-1,-3.9095626E0,7.987015E-1,-7.7828676E-1],"split_indices":[0,3,0,3,1,3,3,0,0,2,0,0,1,0,4,1,0,4,2,1,4,3,0,3,0,1,3,1,0,0,0,0,0,2,2,0,3,4,1,3,4,1,0,3,0,1,2,1,4,1,0,1,1,0,0,0,4,0,3,0,0,0,0,0,0,0,0,0,0,0,0,0,0,0,0,0,0,0,0,0,0,0,0,0,0,0,0,0,0,0,0,0,0,0,0,0,0,0,0,0,0],"split_type":[0,0,0,0,0,0,0,0,0,0,0,0,0,0,0,0,0,0,0,0,0,0,0,0,0,0,0,0,0,0,0,0,0,0,0,0,0,0,0,0,0,0,0,0,0,0,0,0,0,0,0,0,0,0,0,0,0,0,0,0,0,0,0,0,0,0,0,0,0,0,0,0,0,0,0,0,0,0,0,0,0,0,0,0,0,0,0,0,0,0,0,0,0,0,0,0,0,0,0,0,0],"sum_hessian":[7.49E2,3.75E2,3.74E2,2.76E2,9.9E1,2.21E2,1.53E2,6E0,2.7E2,9.3E1,6E0,1.07E2,1.14E2,1.24E2,2.9E1,4E0,2E0,1.23E2,1.47E2,7.3E1,2E1,5E0,1E0,2E1,8.7E1,1.04E2,1E1,1.2E2,4E0,2E1,9E0,2E0,2E0,8E0,1.15E2,9.1E1,5.6E1,3.6E1,3.7E1,1.2E1,8E0,3E0,2E0,1.6E1,4E0,1.1E1,7.6E1,5.4E1,5E1,7E0,3E0,1.14E2,6E0,3E0,1E0,2E0,1.8E1,3E0,6E0,1E0,1E0,7E0,1E0,8.7E1,2.8E1,4E0,8.7E1,5.4E1,2E0,5E0,3.1E1,1.6E1,2.1E1,2E0,1E1,5E0,3E0,2E0,1E0,1.4E1,2E0,3E0,8E0,5.2E1,2.4E1,1.4E1,4E1,3.6E1,1.4E1,6E0,1E0,3E1,8.4E1,1E0,5E0,8E0,1E1,1E0,2E0,4E0,2E0],"tree_param":{"num_deleted":"0","num_feature":"5","num_nodes":"101","size_leaf_vector":"1"}},{"base_weights":[5.070372E-2,-7.0012903E-1,2.6559703E0,-1.811453E0,1.5142713E-1,3.2712648E0,-2.8342667E-1,-1.0037404E0,-2.886588E0,2.847849E0,-2.0799908E-1,2.6255035E0,6.9822693E0,1.1987118E0,-2.9524577E0,-2.8830028E0,5.3990227E-1,-3.3028755E-1,-5.084601E0,2.0952575E0,2.672763E0,-7.3888725E-1,2.1027331E0,3.58339E0,-1.3553495E0,4.614195E0,5.658988E0,-1.1114262E0,3.6199925E0,-8.589204E0,2.3497248E-1,-3.5227635E0,5.6266317E0,-2.7713716E0,2.2468607E0,4.189803E-1,-7.307348E0,-5.8942876E0,-1.8284326E0,2.4688342E0,-1.6469889E0,-1.9135892E-1,-4.546956E0,7.294046E-1,6.0725236E0,2.2539372E0,5.588226E0,-2.7091641E0,6.3121736E-1,1.820239E0,7.87911E0,1.4147782E0,-2.9303856E0,5.2394276E0,-1.6432383E0,-4.6204722E-1,-3.12765E0,1.0194798E0,-1.3858362E0,-1.1820391E0,1.0542258E0,3.1156967E0,-3.0238077E-1,-1.2401466E0,1.6926804E-1,2.4246552E0,1.698438E-1,-2.580773E-1,8.853809E-1,-4.704094E-3,-2.7379036E0,-1.5440828E0,-2.796837E0,4.1369042E-1,-1.4323887E0,1.1755543E0,4.3022728E-1,3.7342403E-2,-1.623896E0,-1.7762237E0,2.4382293E-1,2.109319E0,-2.8804034E-1,8.20138E-2,2.2887769E0,3.346061E0,4.769584E-1,2.8948202E0,6.5881056E-1,-4.4925755E-1,1.4395585E0,2.9865181E0,-7.424104E-1,-7.325833E-1,2.9107187E0,-2.097931E-2,-1.1213006E0,1.05514534E-1,1.7419282E0,-7.791138E-3,-6.17783E-1],"categories":[],"categories_nodes":[],"categories_segments":[],"categories_sizes":[],"default_left":[0,0,0,0,0,0,0,0,0,0,0,0,0,0,0,0,0,0,0,0,0,0,0,0,0,0,0,0,0,0,0,0,0,0,0,0,0,0,0,0,0,0,0,0,0,0,0,0,0,0,0,0,0,0,0,0,0,0,0,0,0,0,0,0,0,0,0,0,0,0,0,0,0,0,0,0,0,0,0,0,0,0,0,0,0,0,0,0,0,0,0,0,0,0,0,0,0,0,0,0,0],"id":6,"left_children":[1,3,5,7,9,11,13,15,17,19,21,23,25,27,29,31,33,35,37,39,-1,41,43,45,47,49,-1,51,53,55,57,59,61,63,65,67,69,71,73,75,-1,77,79,81,83,85,87,-1,89,91,93,-1,95,97,-1,-1,-1,-1,99,-1,-1,-1,-1,-1,-1,-1,-1,-1,-1,-1,-1,-1,-1,-1,-1,-1,-1,-1,-1,-1,-1,-1,-1,-1,-1,-1,-1,-1,-1,-1,-1,-1,-1,-1,-1,-1,-1,-1,-1,-1,-1],"loss_changes":[1.4689493E3,5.5199915E2,3.0477112E2,2.1680786E2,3.2138586E2,3.1477075E2,1.22215355E2,4.250893E2,6.051489E2,1.5924036E2,3.6098862E2,4.6244122E2,4.75664E2,1.1589321E2,1.9965231E2,3.7913397E2,4.640557E2,2.6967365E2,1.4213855E2,1.155656E2,0E0,4.97451E2,2.9542114E2,2.459419E2,3.716353E2,1.4985464E2,0E0,1.3041638E2,1.760261E2,3.5719635E1,4.5726192E1,1.9593658E2,1.683384E2,1.2958089E2,5.250301E2,1.5479068E2,6.61745E1,6.9880615E1,1.2942926E2,4.6882126E1,0E0,3.4699847E2,2.2570496E2,4.5392044E2,1.2430231E2,3.36868E2,5.0230823E2,0E0,1.8460855E2,4.0896008E2,1.7423862E2,0E0,2.0521378E1,2.289978E1,0E0,0E0,0E0,0E0,5.441251E0,0E0,0E0,0E0,0E0,0E0,0E0,0E0,0E0,0E0,0E0,0E0,0E0,0E0,0E0,0E0,0E0,0E0,0E0,0E0,0E0,0E0,0E0,0E0,0E0,0E0,0E0,0E0,0E0,0E0,0E0,0E0,0E0,0E0,0E0,0E0,0E0,0E0,0E0,0E0,0E0,0E0,0E0],"parents":[2147483647,0,0,1,1,2,2,3,3,4,4,5,5,6,6,7,7,8,8,9,9,10,10,11,11,12,12,13,13,14,14,15,15,16,16,17,17,18,18,19,19,21,21,22,22,23,23,24,24,25,25,27,27,28,28,29,29,30,30,31,31,32,32,33,33,34,34,35,35,36,36,37,37,38,38,39,39,41,41,42,42,43,43,44,44,45,45,46,46,48,48,49,49,50,50,52,52,53,53,58,58],"right_children":[2,4,6,8,10,12,14,16,18,20,22,24,26,28,30,32,34,36,38,40,-1,42,44,46,48,50,-1,52,54,56,58,60,62,64,66,68,70,72,74,76,-1,78,80,82,84,86,88,-1,90,92,94,-1,96,98,-1,-1,-1,-1,100,-1,-1,-1,-1,-1,-1,-1,-1,-1,-1,-1,-1,-1,-1,-1,-1,-1,-1,-1,-1,-1,-1,-1,-1,-1,-1,-1,-1,-1,-1,-1,-1,-1,-1,-1,-1,-1,-1,-1,-1,-1,-1],"split_conditions":[5.5666668E1,3.4333332E1,1.9881649E1,2.6678857E2,1.1440978E1,1.7429354E1,2.7398764E2,1.6203999E1,1.609969E1,5.4E1,2.445542E1,1.5815435E1,2.646167E1,1E-1,6.3E1,2.6329977E2,1.819614E2,3.3333332E1,3E-1,5.8E0,2.672763E0,2.2584585E1,1.9272614E1,2.8209467E2,1.6071491E1,6.4666664E1,5.658988E0,1.3322083E1,5.4999995E0,5.8E1,9.83875E0,3.3666668E1,3E-1,2.3407503E1,1.4238751E1,2.8E1,8.945001E0,3.2333332E1,1E0,4.0333332E1,-1.6469889E0,9.099999E0,2.4E0,1.3891522E1,3.8333332E1,2.5240408E1,2.9555005E2,-2.7091641E0,2.7082828E2,1.3657501E1,6.2408347E0,1.4147782E0,2.0180148E2,9.295E0,-1.6432383E0,-4.6204722E-1,-3.12765E0,1.0194798E0,2.2314192E1,-1.1820391E0,1.0542258E0,3.1156967E0,-3.0238077E-1,-1.2401466E0,1.6926804E-1,2.4246552E0,1.698438E-1,-2.580773E-1,8.853809E-1,-4.704094E-3,-2.7379036E0,-1.5440828E0,-2.796837E0,4.1369042E-1,-1.4323887E0,1.1755543E0,4.3022728E-1,3.7342403E-2,-1.623896E0,-1.7762237E0,2.4382293E-1,2.109319E0,-2.8804034E-1,8.20138E-2,2.2887769E0,3.346061E0,4.769584E-1,2.8948202E0,6.5881056E-1,-4.4925755E-1,1.4395585E0,2.9865181E0,-7.424104E-1,-7.325833E-1,2.9107187E0,-2.097931E-2,-1.1213006E0,1.05514534E-1,1.7419282E0,-7.791138E-3,-6.17783E-1],"split_indices":[0,0,3,4,3,3,4,3,3,0,1,3,1,2,0,4,4,0,2,2,0,1,3,4,3,0,0,1,2,0,1,0,2,1,1,0,1,0,2,0,0,2,2,3,0,4,4,0,4,1,1,0,4,1,0,0,0,0,3,0,0,0,0,0,0,0,0,0,0,0,0,0,0,0,0,0,0,0,0,0,0,0,0,0,0,0,0,0,0,0,0,0,0,0,0,0,0,0,0,0,0],"split_type":[0,0,0,0,0,0,0,0,0,0,0,0,0,0,0,0,0,0,0,0,0,0,0,0,0,0,0,0,0,0,0,0,0,0,0,0,0,0,0,0,0,0,0,0,0,0,0,0,0,0,0,0,0,0,0,0,0,0,0,0,0,0,0,0,0,0,0,0,0,0,0,0,0,0,0,0,0,0,0,0,0,0,0,0,0,0,0,0,0,0,0,0,0,0,0,0,0,0,0,0,0],"sum_hessian":[7.49E2,5.82E2,1.67E2,2.52E2,3.3E2,1.38E2,2.9E1,1.45E2,1.07E2,3.8E1,2.92E2,1.19E2,1.9E1,1.9E1,1E1,6.5E1,8E1,5E1,5.7E1,3.5E1,3E0,2.38E2,5.4E1,9.6E1,2.3E1,1.7E1,2E0,1E1,9E0,3E0,7E0,6.1E1,4E0,2.7E1,5.3E1,4.6E1,4E0,4.5E1,1.2E1,3.4E1,1E0,2.09E2,2.9E1,4.1E1,1.3E1,5.9E1,3.7E1,4E0,1.9E1,1E1,7E0,2E0,8E0,8E0,1E0,1E0,2E0,2E0,5E0,5.8E1,3E0,2E0,2E0,1.9E1,8E0,1.1E1,4.2E1,3.1E1,1.5E1,1E0,3E0,3.9E1,6E0,6E0,6E0,1.3E1,2.1E1,1.98E2,1.1E1,2.3E1,6E0,8E0,3.3E1,3E0,1E1,3E0,5.6E1,1.6E1,2.1E1,1.3E1,6E0,3E0,7E0,1E0,6E0,2E0,6E0,1E0,7E0,2E0,3E0],"tree_param":{"num_deleted":"0","num_feature":"5","num_nodes":"101","size_leaf_vector":"1"}},{"base_weights":[5.343745E-2,-8.418621E-1,1.292476E0,-2.4446648E-1,-1.6360173E0,3.6761339E0,1.1832863E0,-6.065533E-1,7.677834E0,-5.9175134E-1,-3.2957234E0,1.3567407E0,-4.2080564E0,-3.91714E-1,-5.043506E0,1.1940798E0,1.2881949E1,-1.034457E0,6.4495883E0,-2.8910158E0,-2.6786833E0,1.0104094E0,3.2772422E0,-5.2261806E0,-9.037399E-2,-8.5703975E-1,3.2922664E0,-4.2391333E-1,-6.022981E0,-2.7264762E0,6.023461E0,4.1729746E0,1.1613184E0,-1.9824115E0,7.4213743E-1,-6.18337E-2,9.066524E0,-4.189287E0,-8.95545E-1,1.3191825E0,-3.1970077E0,4.0766993E0,-1.759261E0,-2.2261245E0,-1.1768422E0,-3.925152E-1,3.518469E-1,3.6769715E-1,-4.203615E-1,1.3419614E0,-4.1691858E-1,1.0657883E-2,-2.0141889E-1,-2.003995E0,-1.1504517E-1,1.4159976E-1,-1.1849903E0,2.1448765E0,5.656812E-1,-3.1897005E-1,-1.2492213E0,1.0467871E0,-4.6178004E-1,-5.169022E-1,4.89077E-1,3.5000885E0,-2.0028363E-1,-2.8523698E-1,-1.4042864E0,-7.0794094E-1,4.2781433E-1,2.9903466E-1,1.6582835E0,-1.7828547E0,1.5392244E0,9.932737E-1,5.0913587E0,6.615141E-1,-2.334006E0,-5.305285E-1,8.968735E-2],"categories":[],"categories_nodes":[],"categories_segments":[],"categories_sizes":[],"default_left":[0,0,0,0,0,0,0,0,0,0,0,0,0,0,0,0,0,0,0,0,0,0,0,0,0,0,0,0,0,0,0,0,0,0,0,0,0,0,0,0,0,0,0,0,0,0,0,0,0,0,0,0,0,0,0,0,0,0,0,0,0,0,0,0,0,0,0,0,0,0,0,0,0,0,0,0,0,0,0,0,0],"id":7,"left_children":[1,3,5,7,9,-1,11,13,15,17,19,21,23,25,27,29,31,33,35,-1,37,39,41,43,45,47,49,51,53,55,57,-1,-1,59,61,63,65,67,69,71,73,75,77,-1,79,-1,-1,-1,-1,-1,-1,-1,-1,-1,-1,-1,-1,-1,-1,-1,-1,-1,-1,-1,-1,-1,-1,-1,-1,-1,-1,-1,-1,-1,-1,-1,-1,-1,-1,-1,-1],"loss_changes":[8.3307104E2,2.0644928E2,3.6251172E2,7.217972E2,3.2215344E2,0E0,2.9841183E2,2.2680003E2,3.557821E2,3.682718E2,2.5589697E2,1.9888818E2,4.1450806E1,3.9709933E2,4.721927E1,1.3002599E2,1.7311401E0,1.8672559E2,1.1984042E2,0E0,1.7672049E2,3.40694E2,1.9238947E2,6.2348923E1,6.1502624E0,2.340503E2,1.4997433E2,3.6496264E-1,3.078479E1,1.751761E1,4.9796295E-1,0E0,0E0,1.3995663E2,2.4979822E2,1.1241511E1,1.34354E2,5.287097E1,1.1214632E2,3.2283548E2,4.4209167E2,3.387873E2,1.8423233E2,0E0,4.020936E0,0E0,0E0,0E0,0E0,0E0,0E0,0E0,0E0,0E0,0E0,0E0,0E0,0E0,0E0,0E0,0E0,0E0,0E0,0E0,0E0,0E0,0E0,0E0,0E0,0E0,0E0,0E0,0E0,0E0,0E0,0E0,0E0,0E0,0E0,0E0,0E0],"parents":[2147483647,0,0,1,1,2,2,3,3,4,4,6,6,7,7,8,8,9,9,10,10,11,11,12,12,13,13,14,14,15,15,16,16,17,17,18,18,20,20,21,21,22,22,23,23,24,24,25,25,26,26,27,27,28,28,29,29,30,30,33,33,34,34,35,35,36,36,37,37,38,38,39,39,40,40,41,41,42,42,44,44],"right_children":[2,4,6,8,10,-1,12,14,16,18,20,22,24,26,28,30,32,34,36,-1,38,40,42,44,46,48,50,52,54,56,58,-1,-1,60,62,64,66,68,70,72,74,76,78,-1,80,-1,-1,-1,-1,-1,-1,-1,-1,-1,-1,-1,-1,-1,-1,-1,-1,-1,-1,-1,-1,-1,-1,-1,-1,-1,-1,-1,-1,-1,-1,-1,-1,-1,-1,-1,-1],"split_conditions":[4.6E1,1.680857E1,7.628263E0,1.6645864E1,2.6678857E2,3.6761339E0,2.8528723E1,4.4333332E1,2.9E1,2.6234348E2,1.7026896E1,2.440125E1,1.9028334E1,4.1666668E1,8.034583E0,1E-1,3.7E1,3E-1,1.784816E1,-2.8910158E0,1.3080418E1,2.2455414E1,2.1230728E2,5.5333332E1,4.9E1,9.940835E0,2.2584585E1,6.2408347E0,2.3876251E1,1.2E1,2.3333334E1,4.1729746E0,1.1613184E0,3.6666668E1,1.963667E1,2.4E1,3.9E1,2.843593E2,3.4E1,2.1582502E1,6E-1,2.0817099E2,2.7640833E1,-2.2261245E0,5.8E1,-3.925152E-1,3.518469E-1,3.6769715E-1,-4.203615E-1,1.3419614E0,-4.1691858E-1,1.0657883E-2,-2.0141889E-1,-2.003995E0,-1.1504517E-1,1.4159976E-1,-1.1849903E0,2.1448765E0,5.656812E-1,-3.1897005E-1,-1.2492213E0,1.0467871E0,-4.6178004E-1,-5.169022E-1,4.89077E-1,3.5000885E0,-2.0028363E-1,-2.8523698E-1,-1.4042864E0,-7.0794094E-1,4.2781433E-1,2.9903466E-1,1.6582835E0,-1.7828547E0,1.5392244E0,9.932737E-1,5.0913587E0,6.615141E-1,-2.334006E0,-5.305285E-1,8.968735E-2],"split_indices":[0,3,3,3,4,0,3,0,0,4,3,1,1,0,1,2,0,2,3,0,1,1,4,0,0,1,1,1,1,0,0,0,0,0,1,0,0,4,0,1,2,4,1,0,0,0,0,0,0,0,0,0,0,0,0,0,0,0,0,0,0,0,0,0,0,0,0,0,0,0,0,0,0,0,0,0,0,0,0,0,0],"split_type":[0,0,0,0,0,0,0,0,0,0,0,0,0,0,0,0,0,0,0,0,0,0,0,0,0,0,0,0,0,0,0,0,0,0,0,0,0,0,0,0,0,0,0,0,0,0,0,0,0,0,0,0,0,0,0,0,0,0,0,0,0,0,0,0,0,0,0,0,0,0,0,0,0,0,0,0,0,0,0,0,0],"sum_hessian":[7.49E2,4.35E2,3.14E2,2.49E2,1.86E2,2E0,3.12E2,2.39E2,1E1,1.15E2,7.1E1,3.03E2,9E0,2.29E2,1E1,5E0,5E0,1.09E2,6E0,5E0,6.6E1,2.58E2,4.5E1,7E0,2E0,2.04E2,2.5E1,2E0,8E0,3E0,2E0,4E0,1E0,7.1E1,3.8E1,2E0,4E0,3.5E1,3.1E1,2.41E2,1.7E1,3.9E1,6E0,4E0,3E0,1E0,1E0,4.2E1,1.62E2,2E1,5E0,1E0,1E0,7E0,1E0,1E0,2E0,1E0,1E0,5.1E1,2E1,1.7E1,2.1E1,1E0,1E0,3E0,1E0,5E0,3E1,1.9E1,1.2E1,2.25E2,1.6E1,1.3E1,4E0,3.8E1,1E0,4E0,2E0,2E0,1E0],"tree_param":{"num_deleted":"0","num_feature":"5","num_nodes":"81","size_leaf_vector":"1"}},{"base_weights":[5.0854765E-2,-3.138664E-1,1.8946396E0,-8.626988E-1,2.3247774E-1,2.5475016E0,-9.317643E-1,-1.2242732E0,4.580364E-1,1.0149509E-1,6.9611683E0,2.1653724E0,9.451308E0,-1.8765805E0,-1.6347903E-1,-2.5107481E0,-7.957826E-1,4.781441E0,-6.5079457E-1,3.170767E0,-7.6325044E-2,-6.8769896E-1,9.270334E0,3.3052738E0,1.4205964E-1,3.9468348E0,7.788197E-1,3.4011695E0,-1.144577E0,-1.8645372E0,-3.3759363E0,1.2740246E0,-1.3535819E0,1.1356628E0,8.264982E0,2.6253684E0,-2.4528074E0,4.8502507E0,-7.166608E-1,2.105662E0,-1.4895953E-1,6.020188E-1,3.175366E0,-4.382019E0,3.9109838E0,2.2712271E0,-7.5939302E0,7.623425E-2,4.124405E0,-4.7099676E0,-1.17501065E-1,-6.387725E-1,1.983541E0,8.9789677E-1,-3.6830747E-1,1.0535967E-2,-7.100792E-1,-6.845741E-1,7.9655224E-1,4.2219946E-1,2.7520106E0,1.2429795E0,9.29397E-2,-1.2529154E0,1.6619508E-1,1.6578456E0,-3.8769895E-1,4.2576164E-1,-1.7093989E0,-3.8314717E0,-1.850829E-2,-1.8300643E0,3.7361413E-1,1.6637095E0,-8.942732E-3,3.1397548E0,2.769484E-1,-2.6749606E0,2.4964601E-1,2.2573014E-1,1.4992752E0,-1.1361924E-1,-1.808241E0,1.6817576E-1,-1.4416077E0],"categories":[],"categories_nodes":[],"categories_segments":[],"categories_sizes":[],"default_left":[0,0,0,0,0,0,0,0,0,0,0,0,0,0,0,0,0,0,0,0,0,0,0,0,0,0,0,0,0,0,0,0,0,0,0,0,0,0,0,0,0,0,0,0,0,0,0,0,0,0,0,0,0,0,0,0,0,0,0,0,0,0,0,0,0,0,0,0,0,0,0,0,0,0,0,0,0,0,0,0,0,0,0,0,0],"id":8,"left_children":[1,3,5,7,9,11,13,15,17,19,21,23,25,-1,27,29,31,33,35,37,39,-1,41,43,45,-1,-1,47,49,51,-1,53,55,57,59,61,63,65,67,-1,69,-1,-1,71,73,75,77,-1,79,81,83,-1,-1,-1,-1,-1,-1,-1,-1,-1,-1,-1,-1,-1,-1,-1,-1,-1,-1,-1,-1,-1,-1,-1,-1,-1,-1,-1,-1,-1,-1,-1,-1,-1,-1],"loss_changes":[5.0494522E2,1.8820738E2,2.3118481E2,1.50032E2,2.7691614E2,2.4598718E2,9.713666E1,1.3360764E2,3.2909866E2,1.694333E2,1.4945782E2,2.2324896E2,9.283267E1,0E0,8.083283E1,3.236326E2,2.1646841E2,1.6841681E2,3.3114233E2,1.1446678E2,1.5256024E2,0E0,2.6489502E1,3.0582684E2,6.102114E2,0E0,0E0,1.0332241E1,6.536126E1,1.442141E2,0E0,1.7568893E2,2.0694727E2,4.7603245E1,3.06958E1,6.9012314E1,1.8888132E2,5.696292E1,7.1923416E1,0E0,3.2085455E2,0E0,0E0,5.594194E1,3.7380542E2,3.1069818E2,9.657495E1,0E0,8.016991E0,2.054287E1,5.0375443E1,0E0,0E0,0E0,0E0,0E0,0E0,0E0,0E0,0E0,0E0,0E0,0E0,0E0,0E0,0E0,0E0,0E0,0E0,0E0,0E0,0E0,0E0,0E0,0E0,0E0,0E0,0E0,0E0,0E0,0E0,0E0,0E0,0E0,0E0],"parents":[2147483647,0,0,1,1,2,2,3,3,4,4,5,5,6,6,7,7,8,8,9,9,10,10,11,11,12,12,14,14,15,15,16,16,17,17,18,18,19,19,20,20,22,22,23,23,24,24,27,27,28,28,29,29,31,31,32,32,33,33,34,34,35,35,36,36,37,37,38,38,40,40,43,43,44,44,45,45,46,46,48,48,49,49,50,50],"right_children":[2,4,6,8,10,12,14,16,18,20,22,24,26,-1,28,30,32,34,36,38,40,-1,42,44,46,-1,-1,48,50,52,-1,54,56,58,60,62,64,66,68,-1,70,-1,-1,72,74,76,78,-1,80,82,84,-1,-1,-1,-1,-1,-1,-1,-1,-1,-1,-1,-1,-1,-1,-1,-1,-1,-1,-1,-1,-1,-1,-1,-1,-1,-1,-1,-1,-1,-1,-1,-1,-1,-1],"split_conditions":[5.9333332E1,3.8333332E1,2.0291357E1,2.2974167E1,2.824917E1,1.9191748E1,2.0620804E1,2.1428688E2,2.3995E1,3.9333332E1,3.9E1,1.3892917E1,1.9826164E1,-1.8765805E0,9.83875E0,2.109957E2,2.5023857E2,3.1666666E1,1.647448E2,2E-1,4.9075007E0,-6.8769896E-1,1.288981E1,5.592917E0,2.398318E2,3.9468348E0,7.788197E-1,5.9666668E1,1.1474167E1,3.8E1,-3.3759363E0,1.7555418E1,1.5315873E1,2.3655416E1,2.3117918E1,1.6981165E1,2.6928337E1,2.6776253E1,2.283875E1,2.105662E0,5.447083E0,6.020188E-1,3.175366E0,7.8E1,1E-1,6.0666668E1,3.007841E2,7.623425E-2,7.7491665E0,1.0153334E1,5.4999995E0,-6.387725E-1,1.983541E0,8.9789677E-1,-3.6830747E-1,1.0535967E-2,-7.100792E-1,-6.845741E-1,7.9655224E-1,4.2219946E-1,2.7520106E0,1.2429795E0,9.29397E-2,-1.2529154E0,1.6619508E-1,1.6578456E0,-3.8769895E-1,4.2576164E-1,-1.7093989E0,-3.8314717E0,-1.850829E-2,-1.8300643E0,3.7361413E-1,1.6637095E0,-8.942732E-3,3.1397548E0,2.769484E-1,-2.6749606E0,2.4964601E-1,2.2573014E-1,1.4992752E0,-1.1361924E-1,-1.808241E0,1.6817576E-1,-1.4416077E0],"split_indices":[0,0,3,1,1,3,3,4,1,0,0,1,3,0,1,4,4,0,4,2,1,0,3,1,4,0,0,0,1,0,0,1,3,1,1,3,1,1,1,0,1,0,0,0,2,0,4,0,1,1,2,0,0,0,0,0,0,0,0,0,0,0,0,0,0,0,0,0,0,0,0,0,0,0,0,0,0,0,0,0,0,0,0,0,0],"split_type":[0,0,0,0,0,0,0,0,0,0,0,0,0,0,0,0,0,0,0,0,0,0,0,0,0,0,0,0,0,0,0,0,0,0,0,0,0,0,0,0,0,0,0,0,0,0,0,0,0,0,0,0,0,0,0,0,0,0,0,0,0,0,0,0,0,0,0,0,0,0,0,0,0,0,0,0,0,0,0,0,0,0,0,0,0],"sum_hessian":[7.49E2,6.26E2,1.23E2,3.12E2,3.14E2,1E2,2.3E1,2.45E2,6.7E1,3.09E2,5E0,9.6E1,4E0,2E0,2.1E1,6E1,1.85E2,1.3E1,5.4E1,1.6E1,2.93E2,1E0,4E0,6.1E1,3.5E1,2E0,2E0,4E0,1.7E1,5.7E1,3E0,3.9E1,1.46E2,7E0,6E0,1.9E1,3.5E1,1.1E1,5E0,2E0,2.91E2,1E0,3E0,4E0,5.7E1,2.8E1,7E0,1E0,3E0,3E0,1.4E1,5.6E1,1E0,2.3E1,1.6E1,6.2E1,8.4E1,2E0,5E0,1E0,5E0,1.1E1,8E0,2.2E1,1.3E1,1E1,1E0,4E0,1E0,1E0,2.9E2,3E0,1E0,4E1,1.7E1,3E0,2.5E1,6E0,1E0,1E0,2E0,1E0,2E0,1.3E1,1E0],"tree_param":{"num_deleted":"0","num_feature":"5","num_nodes":"85","size_leaf_vector":"1"}},{"base_weights":[4.2679705E-2,-1.7845647E-1,1.6262238E0,-1.1436513E-1,-3.9436226E0,-3.4791355E0,2.0875962E0,-1.6475603E-1,3.237419E0,-6.4715934E0,1.4864491E0,-4.278604E0,3.1757185E-1,6.9215345E0,1.4240834E0,-2.6596766E0,-8.0931336E-2,-3.3533573E-1,-9.483832E0,-4.923317E-1,-1.7539356E0,9.219814E0,-1.5143903E0,1.0428011E0,8.0264635E0,-1.3858427E0,-2.076406E0,2.4563067E-2,-2.1810887E0,-2.4113605E0,8.839108E-1,-5.4970974E-1,-3.8554425E0,3.4959888E0,1.62872E0,1.9187051E-1,-8.7334615E-1,-3.6249325E0,1.5149106E0,3.6132638E0,-6.040175E-1,-9.7654027E-1,-2.4237303E-1,8.305891E-1,-1.2344672E-2,-1.4212967E0,1.0560324E-1,7.5779116E-1,-1.8429034E0,-1.3394593E0,2.1219864E-1,1.6301457E0,2.6743037E-1],"categories":[],"categories_nodes":[],"categories_segments":[],"categories_sizes":[],"default_left":[0,0,0,0,0,0,0,0,0,0,0,0,0,0,0,0,0,0,0,0,0,0,0,0,0,0,0,0,0,0,0,0,0,0,0,0,0,0,0,0,0,0,0,0,0,0,0,0,0,0,0,0,0],"id":9,"left_children":[1,3,5,7,9,11,13,15,-1,17,-1,19,-1,21,23,25,27,29,31,-1,-1,33,35,37,39,-1,41,43,45,47,-1,-1,-1,-1,-1,-1,-1,49,51,-1,-1,-1,-1,-1,-1,-1,-1,-1,-1,-1,-1,-1,-1],"loss_changes":[2.6292435E2,1.5857529E2,2.2396646E2,3.5843668E2,2.79511E2,3.3551254E1,2.6277045E2,1.3509573E2,0E0,1.6317465E2,0E0,1.9351746E1,0E0,2.0784357E2,1.8295013E2,1.441304E1,1.3896844E2,3.435636E1,1.3105579E2,0E0,0E0,1.053125E1,1.0887594E1,1.6636017E2,1.8560019E2,0E0,2.428395E1,1.0794412E2,1.9594884E2,7.0790245E1,0E0,0E0,0E0,0E0,0E0,0E0,0E0,2.8629745E1,1.5886024E2,0E0,0E0,0E0,0E0,0E0,0E0,0E0,0E0,0E0,0E0,0E0,0E0,0E0,0E0],"parents":[2147483647,0,0,1,1,2,2,3,3,4,4,5,5,6,6,7,7,9,9,11,11,13,13,14,14,15,15,16,16,17,17,18,18,21,21,22,22,23,23,24,24,26,26,27,27,28,28,29,29,37,37,38,38],"right_children":[2,4,6,8,10,12,14,16,-1,18,-1,20,-1,22,24,26,28,30,32,-1,-1,34,36,38,40,-1,42,44,46,48,-1,-1,-1,-1,-1,-1,-1,50,52,-1,-1,-1,-1,-1,-1,-1,-1,-1,-1,-1,-1,-1,-1],"split_conditions":[6.3333332E1,6.2333332E1,6.48875E0,6.2E1,2.4E0,7.8E1,7.824167E0,1.5666667E1,3.237419E0,1.0874167E1,1.4864491E0,6.6666664E1,3.1757185E-1,1.5277749E1,9.5666664E1,2.1933759E2,2.8528723E1,8.515834E0,1.7372572E2,-4.923317E-1,-1.7539356E0,2.859454E2,6.7666664E1,1.0805999E1,1.07E2,-1.3858427E0,8.945001E0,9.387651E0,3.1542658E1,6.3E1,8.839108E-1,-5.4970974E-1,-3.8554425E0,3.4959888E0,1.62872E0,1.9187051E-1,-8.7334615E-1,2.8209467E2,1.1753876E1,3.6132638E0,-6.040175E-1,-9.7654027E-1,-2.4237303E-1,8.305891E-1,-1.2344672E-2,-1.4212967E0,1.0560324E-1,7.5779116E-1,-1.8429034E0,-1.3394593E0,2.1219864E-1,1.6301457E0,2.6743037E-1],"split_indices":[0,0,1,0,2,0,1,0,0,1,0,0,0,3,0,4,3,1,4,0,0,4,0,3,0,0,1,3,3,0,0,0,0,0,0,0,0,4,3,0,0,0,0,0,0,0,0,0,0,0,0,0,0],"split_type":[0,0,0,0,0,0,0,0,0,0,0,0,0,0,0,0,0,0,0,0,0,0,0,0,0,0,0,0,0,0,0,0,0,0,0,0,0,0,0,0,0,0,0,0,0,0,0,0,0,0,0,0,0],"sum_hessian":[7.49E2,6.58E2,9.1E1,6.48E2,1E1,7E0,8.4E1,6.46E2,2E0,8E0,2E0,6E0,1E0,9E0,7.5E1,2E1,6.26E2,3E0,5E0,3E0,3E0,7E0,2E0,7.2E1,3E0,3E0,1.7E1,5.97E2,2.9E1,2E0,1E0,2E0,3E0,3E0,4E0,1E0,1E0,6E0,6.6E1,2E0,1E0,8E0,9E0,1.3E1,5.84E2,1.4E1,1.5E1,1E0,1E0,5E0,1E0,8E0,5.8E1],"tree_param":{"num_deleted":"0","num_feature":"5","num_nodes":"53","size_leaf_vector":"1"}},{"base_weights":[3.4288093E-2,-4.1579425E-1,6.114932E-1,-3.2626176E-1,-3.7313938E0,2.3320017E0,5.4391813E-1,9.432985E-2,-8.907728E-1,1.7987397E0,-7.1484327E0,4.1497725E-1,3.3970273E0,-2.828594E-1,5.695588E0,-6.3297087E-1,-5.1069884E0,-1.9113924E-1,1.090509E0,1.3687135E-2,-8.355046E0,5.0307E-1,-2.6262856E0,2.61478E-1,7.5341797E0,-5.860335E-1,2.5136874E0,8.098643E0,1.7922906E0,-1.5692675E0,7.584504E-2,-3.1661015E0,-1.2650286E0,-2.7117388E0,-7.4019474E-1,4.5025203E-1,5.6876016E0,-4.7652874E0,-7.625701E-1,-1.8338174E0,1.8223438E0,3.2664847E0,5.506503E-1,4.654403E-1,-2.6080558E-1,1.4579265E0,2.4778561E-1,3.1413321E0,1.2319355E0,-6.804097E-2,1.368005E0,-1.1839857E0,-2.9356572E-1,1.4577831E0,-1.0649357E-1,-6.7732173E-1,7.036852E-1,1.6869984E0,1.1921189E-1,1.902981E-1,2.3691227E0,-1.9387544E0,4.8958972E-2,2.1771261E-1,-5.06441E-1,8.9421463E-1,-2.4361897E-2,9.268158E-1,-6.790232E-1],"categories":[],"categories_nodes":[],"categories_segments":[],"categories_sizes":[],"default_left":[0,0,0,0,0,0,0,0,0,0,0,0,0,0,0,0,0,0,0,0,0,0,0,0,0,0,0,0,0,0,0,0,0,0,0,0,0,0,0,0,0,0,0,0,0,0,0,0,0,0,0,0,0,0,0,0,0,0,0,0,0,0,0,0,0,0,0,0,0],"id":10,"left_children":[1,3,5,7,9,-1,11,13,15,17,19,21,23,25,27,29,31,-1,-1,-1,33,35,37,39,41,43,45,47,49,51,53,-1,55,-1,-1,57,59,61,63,-1,65,-1,67,-1,-1,-1,-1,-1,-1,-1,-1,-1,-1,-1,-1,-1,-1,-1,-1,-1,-1,-1,-1,-1,-1,-1,-1,-1,-1],"loss_changes":[1.950966E2,1.2405495E2,1.5499536E2,9.7904625E1,2.2072166E2,0E0,1.18887886E2,5.0232913E2,1.880704E2,2.4680819E1,6.1144287E1,8.544597E1,1.796414E2,1.9054158E2,1.26182495E2,1.1095055E2,1.9590869E2,0E0,0E0,0E0,1.8638E0,8.123311E1,3.2244556E1,1.0068296E2,1.3454517E2,1.2367865E2,8.309599E1,4.2242798E1,4.0152313E1,9.7250305E1,1.9956323E2,0E0,3.0386078E1,0E0,0E0,8.092386E1,2.8485909E1,3.451368E1,9.490101E0,0E0,1.78822E1,0E0,2.842502E1,0E0,0E0,0E0,0E0,0E0,0E0,0E0,0E0,0E0,0E0,0E0,0E0,0E0,0E0,0E0,0E0,0E0,0E0,0E0,0E0,0E0,0E0,0E0,0E0,0E0,0E0],"parents":[2147483647,0,0,1,1,2,2,3,3,4,4,6,6,7,7,8,8,9,9,10,10,11,11,12,12,13,13,14,14,15,15,16,16,20,20,21,21,22,22,23,23,24,24,25,25,26,26,27,27,28,28,29,29,30,30,32,32,35,35,36,36,37,37,38,38,40,40,42,42],"right_children":[2,4,6,8,10,-1,12,14,16,18,20,22,24,26,28,30,32,-1,-1,-1,34,36,38,40,42,44,46,48,50,52,54,-1,56,-1,-1,58,60,62,64,-1,66,-1,68,-1,-1,-1,-1,-1,-1,-1,-1,-1,-1,-1,-1,-1,-1,-1,-1,-1,-1,-1,-1,-1,-1,-1,-1,-1,-1],"split_conditions":[4.5E1,4.4E1,7.628263E0,1.680857E1,1.3527572E1,2.3320017E0,2.7001257E1,1.6520823E1,4.2666668E1,2.0699167E1,6.2408347E0,2.9462873E1,1.8289274E1,4.1666668E1,2.3117218E2,1.5820003E1,1.8089775E1,-1.9113924E-1,1.090509E0,1.3687135E-2,2.8192316E2,3.4493137E2,9.31375E0,4.9666668E1,2.1230728E2,8.62E0,1.9234583E1,2.3995E1,2.5333334E1,2.1933759E2,1.6459581E1,-3.1661015E0,2.5695002E1,-2.7117388E0,-7.4019474E-1,4.9075007E0,6.6E1,5.5333332E1,5.2E1,-1.8338174E0,1.4440443E1,3.2664847E0,5.3666668E1,4.654403E-1,-2.6080558E-1,1.4579265E0,2.4778561E-1,3.1413321E0,1.2319355E0,-6.804097E-2,1.368005E0,-1.1839857E0,-2.9356572E-1,1.4577831E0,-1.0649357E-1,-6.7732173E-1,7.036852E-1,1.6869984E0,1.1921189E-1,1.902981E-1,2.3691227E0,-1.9387544E0,4.8958972E-2,2.1771261E-1,-5.06441E-1,8.9421463E-1,-2.4361897E-2,9.268158E-1,-6.790232E-1],"split_indices":[0,0,3,3,3,0,1,3,0,1,1,3,3,0,4,1,3,0,0,0,4,4,1,0,4,1,1,1,0,4,1,0,1,0,0,1,0,0,0,0,3,0,0,0,0,0,0,0,0,0,0,0,0,0,0,0,0,0,0,0,0,0,0,0,0,0,0,0,0],"split_type":[0,0,0,0,0,0,0,0,0,0,0,0,0,0,0,0,0,0,0,0,0,0,0,0,0,0,0,0,0,0,0,0,0,0,0,0,0,0,0,0,0,0,0,0,0,0,0,0,0,0,0,0,0,0,0,0,0,0,0,0,0,0,0,0,0,0,0,0,0],"sum_hessian":[7.49E2,4.21E2,3.28E2,4.11E2,1E1,2E0,3.26E2,2.36E2,1.75E2,4E0,6E0,3.13E2,1.3E1,2.22E2,1.4E1,1.66E2,9E0,2E0,2E0,1E0,5E0,3.05E2,8E0,8E0,5E0,2.01E2,2.1E1,8E0,6E0,7.1E1,9.5E1,3E0,6E0,4E0,1E0,3.03E2,2E0,3E0,5E0,1E0,7E0,3E0,2E0,2.3E1,1.78E2,8E0,1.3E1,4E0,4E0,4E0,2E0,1.3E1,5.8E1,7E0,8.8E1,5E0,1E0,2E0,3.01E2,1E0,1E0,2E0,1E0,2E0,3E0,4E0,3E0,1E0,1E0],"tree_param":{"num_deleted":"0","num_feature":"5","num_nodes":"69","size_leaf_vector":"1"}},{"base_weights":[3.579922E-2,-8.592749E-2,1.2011282E0,-2.2036776E-2,-2.5763688E0,-3.254078E0,1.5879481E0,-9.8594286E-2,2.8974516E0,-3.257306E0,1.247794E0,-1.2722896E0,2.5205386E-1,6.3326163E0,1.0952275E0,-3.33705E-2,-3.552674E0,-1.868218E0,4.0521107E0,2.7301147E0,-4.30766E0,2.597721E0,2.7604814E0,-3.3922641E0,1.5564725E0,6.747023E-1,-2.4905449E-1,2.4618468E0,-5.831053E0,1.4886774E0,-1.7908356E0,5.4631853E0,1.8605813E0,4.6216108E-2,1.1823355E0,-4.906379E0,5.2135336E-1,-6.8503535E-1,1.4957788E0,-1.953312E-1,-1.3800205E0,5.317527E0,7.231317E-1,-4.5185E-1,4.6344623E-1,-1.3335993E0,-3.4804855E-2,9.489825E-1,5.3634454E-2,-2.4154491E0,-3.127875E-1,5.5512404E-1,1.1478081E-1,2.4124908E0,2.6229775E-1,-1.35804E-1,8.6292654E-1,-2.327101E0,-9.826476E-1,8.124413E-1,2.566373E0,1.2612175E0,-6.35794E-2],"categories":[],"categories_nodes":[],"categories_segments":[],"categories_sizes":[],"default_left":[0,0,0,0,0,0,0,0,0,0,0,0,0,0,0,0,0,0,0,0,0,0,0,0,0,0,0,0,0,0,0,0,0,0,0,0,0,0,0,0,0,0,0,0,0,0,0,0,0,0,0,0,0,0,0,0,0,0,0,0,0,0,0],"id":11,"left_children":[1,3,5,7,9,11,13,15,17,19,-1,-1,-1,21,23,25,27,29,31,33,35,37,-1,39,41,43,45,47,49,51,-1,53,55,-1,-1,57,-1,-1,-1,-1,-1,59,61,-1,-1,-1,-1,-1,-1,-1,-1,-1,-1,-1,-1,-1,-1,-1,-1,-1,-1,-1,-1],"loss_changes":[1.0649196E2,1.0814215E2,1.27526E2,1.4869551E2,9.151995E1,2.7806599E1,1.4735887E2,1.4586818E2,1.01116516E2,1.12382996E2,0E0,0E0,0E0,4.0389023E1,1.3153978E2,9.745065E1,1.7879546E2,6.3956245E1,3.312906E1,8.751711E0,5.9200348E1,5.8014137E1,0E0,1.686959E1,1.7167216E2,2.8507126E2,2.7247614E2,5.840086E0,8.729721E1,4.9234724E-1,0E0,8.762616E1,1.7751429E1,0E0,0E0,3.5029602E1,0E0,0E0,0E0,0E0,0E0,6.1300293E1,1.538706E2,0E0,0E0,0E0,0E0,0E0,0E0,0E0,0E0,0E0,0E0,0E0,0E0,0E0,0E0,0E0,0E0,0E0,0E0,0E0,0E0],"parents":[2147483647,0,0,1,1,2,2,3,3,4,4,5,5,6,6,7,7,8,8,9,9,13,13,14,14,15,15,16,16,17,17,18,18,19,19,20,20,21,21,23,23,24,24,25,25,26,26,27,27,28,28,29,29,31,31,32,32,35,35,41,41,42,42],"right_children":[2,4,6,8,10,12,14,16,18,20,-1,-1,-1,22,24,26,28,30,32,34,36,38,-1,40,42,44,46,48,50,52,-1,54,56,-1,-1,58,-1,-1,-1,-1,-1,60,62,-1,-1,-1,-1,-1,-1,-1,-1,-1,-1,-1,-1,-1,-1,-1,-1,-1,-1,-1,-1],"split_conditions":[6.6E1,1.3800001E1,6.48875E0,6.8999996E0,2.2407501E1,7.8E1,1.030883E1,5.8E0,8.726535E1,1.3570615E1,1.247794E0,-1.2722896E0,2.5205386E-1,2.8209467E2,3.352447E1,1.6948102E2,2.4333334E1,2.6E1,2.2675694E2,1.9333334E1,3.1631378E2,8.034583E0,2.7604814E0,2.861034E1,6.8333336E1,1.821375E1,1.8106084E2,6.2999997E0,6.5E0,2.2E1,-1.7908356E0,1.963667E1,1.3322083E1,4.6216108E-2,1.1823355E0,1.3892917E1,5.2135336E-1,-6.8503535E-1,1.4957788E0,-1.953312E-1,-1.3800205E0,1.7377226E1,9.161666E0,-4.5185E-1,4.6344623E-1,-1.3335993E0,-3.4804855E-2,9.489825E-1,5.3634454E-2,-2.4154491E0,-3.127875E-1,5.5512404E-1,1.1478081E-1,2.4124908E0,2.6229775E-1,-1.35804E-1,8.6292654E-1,-2.327101E0,-9.826476E-1,8.124413E-1,2.566373E0,1.2612175E0,-6.35794E-2],"split_indices":[0,2,1,2,1,0,3,2,4,3,0,0,0,4,4,4,0,0,4,0,4,1,0,4,0,1,4,2,2,0,0,1,1,0,0,1,0,0,0,0,0,3,1,0,0,0,0,0,0,0,0,0,0,0,0,0,0,0,0,0,0,0,0],"split_type":[0,0,0,0,0,0,0,0,0,0,0,0,0,0,0,0,0,0,0,0,0,0,0,0,0,0,0,0,0,0,0,0,0,0,0,0,0,0,0,0,0,0,0,0,0,0,0,0,0,0,0,0,0,0,0,0,0,0,0,0,0,0,0],"sum_hessian":[7.49E2,6.79E2,7E1,6.63E2,1.6E1,5E0,6.5E1,6.47E2,1.6E1,1.5E1,1E0,4E0,1E0,5E0,6E1,6.36E2,1.1E1,3E0,1.3E1,2E0,1.3E1,3E0,2E0,5E0,5.5E1,1.48E2,4.88E2,3E0,8E0,2E0,1E0,7E0,6E0,1E0,1E0,1.2E1,1E0,1E0,2E0,2E0,3E0,9E0,4.6E1,4.2E1,1.06E2,1.4E1,4.74E2,2E0,1E0,5E0,3E0,1E0,1E0,4E0,3E0,2E0,4E0,3E0,9E0,6E0,3E0,9E0,3.7E1],"tree_param":{"num_deleted":"0","num_feature":"5","num_nodes":"63","size_leaf_vector":"1"}},{"base_weights":[3.097768E-2,-3.988955E-1,3.3809945E-1,-2.7986372E-1,-2.2260263E0,7.223643E-1,-3.3407557E-1,-3.9622414E-1,1.9186124E0,2.7402966E0,-4.1954484E0,3.8293316E0,5.187871E-1,-9.319577E-1,2.7831614E0,-2.6358986E-1,-3.62783E0,1.9361653E0,-3.1729403E-1,1.6912549E0,-1.1769199E-1,-2.8875344E0,-2.4884114E0,2.1241174E0,1.788572E0,1.330459E0,-2.6065338E-1,-4.6413918E0,-5.323268E-1,-1.4299421E0,3.2758057E0,-4.0588674E-1,3.13669E0,1.3949046E0,-5.6857185E0,-4.719502E0,4.1377964E0,-5.858116E-1,3.434643E-1,-1.6120976E0,-1.3739961E0,1.7323112E0,-7.866516E-1,4.2820057E-1,5.6992526E0,8.4932745E-1,-2.8262029E0,1.9515289E0,-7.788415E0,2.1570235E-1,-2.5789428E0,4.047494E0,-5.3622925E-1,7.5878005E-4,-2.797652E-1,-2.6270142E-1,1.2376868E0,-1.0034677E-1,9.8746294E-1,-2.6894312E0,-9.295719E-1,-2.1734915E0,1.1861768E0,1.5409695E0,-1.2840672E-1,2.773033E-1,-6.192373E-1,2.2761498E-1,-4.6696267E-1,4.9294844E-1,-1.1013588E0,6.775637E-1,3.125464E0,8.4490144E-1,-1.3621415E-1,1.5965942E0,-1.5852574E0,-5.5999947E-1,1.535764E0,-2.6605697E0,1.2791863E-1,-1.1060202E-1,1.495804E0,-1.0527408E0,9.9958974E-1,1.5847224E0,3.6782813E-1],"categories":[],"categories_nodes":[],"categories_segments":[],"categories_sizes":[],"default_left":[0,0,0,0,0,0,0,0,0,0,0,0,0,0,0,0,0,0,0,0,0,0,0,0,0,0,0,0,0,0,0,0,0,0,0,0,0,0,0,0,0,0,0,0,0,0,0,0,0,0,0,0,0,0,0,0,0,0,0,0,0,0,0,0,0,0,0,0,0,0,0,0,0,0,0,0,0,0,0,0,0,0,0,0,0,0,0],"id":12,"left_children":[1,3,5,7,9,11,13,15,17,19,21,23,25,27,29,31,33,-1,35,-1,37,-1,39,41,-1,43,45,47,49,-1,51,53,55,57,59,61,63,-1,-1,-1,65,-1,67,69,71,73,75,77,79,81,83,85,-1,-1,-1,-1,-1,-1,-1,-1,-1,-1,-1,-1,-1,-1,-1,-1,-1,-1,-1,-1,-1,-1,-1,-1,-1,-1,-1,-1,-1,-1,-1,-1,-1,-1,-1],"loss_changes":[9.915242E1,6.745034E1,1.1337378E2,7.622581E1,1.9733174E2,1.7448306E2,3.0079224E2,1.19486435E2,1.5415443E2,5.0344807E1,1.0580975E2,4.9156647E1,1.6673373E2,1.9765384E2,1.12315445E2,1.3239627E2,1.2162958E2,0E0,2.3526291E2,0E0,1.1502968E1,0E0,3.1200981E1,1.2141789E2,0E0,5.0604932E2,3.868413E2,2.849243E2,1.8886049E2,0E0,1.0491562E2,5.6142918E1,4.7260193E1,1.4221125E1,4.008905E1,1.6007286E2,2.9559738E1,0E0,0E0,0E0,1.7769455E1,0E0,9.509325E0,5.439378E2,3.3367432E2,2.4483514E2,8.4927606E2,7.0030014E1,8.3640625E1,2.5551471E2,1.9313579E2,7.0175385E1,0E0,0E0,0E0,0E0,0E0,0E0,0E0,0E0,0E0,0E0,0E0,0E0,0E0,0E0,0E0,0E0,0E0,0E0,0E0,0E0,0E0,0E0,0E0,0E0,0E0,0E0,0E0,0E0,0E0,0E0,0E0,0E0,0E0,0E0,0E0],"parents":[2147483647,0,0,1,1,2,2,3,3,4,4,5,5,6,6,7,7,8,8,9,9,10,10,11,11,12,12,13,13,14,14,15,15,16,16,18,18,20,20,22,22,23,23,25,25,26,26,27,27,28,28,30,30,31,31,32,32,33,33,34,34,35,35,36,36,40,40,42,42,43,43,44,44,45,45,46,46,47,47,48,48,49,49,50,50,51,51],"right_children":[2,4,6,8,10,12,14,16,18,20,22,24,26,28,30,32,34,-1,36,-1,38,-1,40,42,-1,44,46,48,50,-1,52,54,56,58,60,62,64,-1,-1,-1,66,-1,68,70,72,74,76,78,80,82,84,86,-1,-1,-1,-1,-1,-1,-1,-1,-1,-1,-1,-1,-1,-1,-1,-1,-1,-1,-1,-1,-1,-1,-1,-1,-1,-1,-1,-1,-1,-1,-1,-1,-1,-1,-1],"split_conditions":[3.8333332E1,3.75E1,1E-1,3.65E1,1.22588425E2,9.252608E1,2.3899168E1,3.5666668E1,1.9894868E2,2.3647085E1,3.7666668E1,8.161683E1,1.3657501E1,9.161666E0,3.9E1,3.5E1,1.4697082E1,1.9361653E0,2.9735876E2,1.6912549E0,2.4255419E1,-2.8875344E0,1.0424167E1,1.1304229E1,1.788572E0,1.1669999E1,2.4534608E2,6.6366673E0,1.9899166E1,-1.4299421E0,2.6711668E1,2.6678857E2,1.3450708E1,3E-1,2.0222082E1,6.8999996E0,1E-1,-5.858116E-1,3.434643E-1,-1.6120976E0,1.3797913E1,1.7323112E0,1.20694E1,1.0557499E1,5.3E1,1.488242E1,4.2666668E1,1.1609651E1,6.0666668E1,1.9070002E1,5.9E1,1.7883682E2,-5.3622925E-1,7.5878005E-4,-2.797652E-1,-2.6270142E-1,1.2376868E0,-1.0034677E-1,9.8746294E-1,-2.6894312E0,-9.295719E-1,-2.1734915E0,1.1861768E0,1.5409695E0,-1.2840672E-1,2.773033E-1,-6.192373E-1,2.2761498E-1,-4.6696267E-1,4.9294844E-1,-1.1013588E0,6.775637E-1,3.125464E0,8.4490144E-1,-1.3621415E-1,1.5965942E0,-1.5852574E0,-5.5999947E-1,1.535764E0,-2.6605697E0,1.2791863E-1,-1.1060202E-1,1.495804E0,-1.0527408E0,9.9958974E-1,1.5847224E0,3.6782813E-1],"split_indices":[0,0,2,0,4,4,1,0,4,1,0,4,1,1,0,0,1,0,4,0,1,0,1,3,0,1,4,1,1,0,1,4,3,2,1,2,2,0,0,0,3,0,3,1,0,3,0,3,0,1,0,4,0,0,0,0,0,0,0,0,0,0,0,0,0,0,0,0,0,0,0,0,0,0,0,0,0,0,0,0,0,0,0,0,0,0,0],"split_type":[0,0,0,0,0,0,0,0,0,0,0,0,0,0,0,0,0,0,0,0,0,0,0,0,0,0,0,0,0,0,0,0,0,0,0,0,0,0,0,0,0,0,0,0,0,0,0,0,0,0,0,0,0,0,0,0,0,0,0,0,0,0,0,0,0,0,0,0,0,0,0,0,0,0,0,0,0,0,0,0,0,0,0,0,0,0,0],"sum_hessian":[7.49E2,3.12E2,4.37E2,2.94E2,1.8E1,2.78E2,1.59E2,2.8E2,1.4E1,5E0,1.3E1,1.6E1,2.62E2,1.34E2,2.5E1,2.7E2,1E1,4E0,1E1,2E0,3E0,2E0,1.1E1,1E1,6E0,1.28E2,1.34E2,1.2E1,1.22E2,1E0,2.4E1,2.6E2,1E1,3E0,7E0,5E0,5E0,1E0,2E0,2E0,9E0,4E0,6E0,1.07E2,2.1E1,9.4E1,4E1,4E0,8E0,9E1,3.2E1,2.1E1,3E0,1.47E2,1.13E2,2E0,8E0,2E0,1E0,2E0,5E0,4E0,1E0,4E0,1E0,2E0,7E0,2E0,4E0,8.3E1,2.4E1,1.3E1,8E0,3.7E1,5.7E1,9E0,3.1E1,2E0,2E0,7E0,1E0,8.1E1,9E0,2.8E1,4E0,1.4E1,7E0],"tree_param":{"num_deleted":"0","num_feature":"5","num_nodes":"87","size_leaf_vector":"1"}},{"base_weights":[2.6872192E-2,-2.370202E-1,3.652786E-1,-1.6478185E-1,-2.9211266E0,-6.4333326E-1,6.4036036E-1,2.6937916E0,-2.1366175E-1,6.136917E-1,-5.028693E0,-3.017168E0,1.4975538E0,4.4065027E0,4.3954977E-1,1.1414688E0,1.3149197E0,-4.5272036E0,-1.2663919E-1,-2.7973518E-1,5.8658105E-1,-5.708714E-2,-5.8033786E0,9.656789E-1,-5.2335243E0,3.2841015E0,-3.1861632E0,6.7742066E0,-1.7231742E0,6.5749234E-1,-1.1002271E0,4.726311E-1,9.810334E-2,-1.9138118E0,-1.0801921E0,6.4059997E-1,-3.6191317E-1,-1.934754E0,-3.86156E-1,-2.5387204E0,3.4732685E0,-1.5148796E0,-8.814453E0,5.146673E0,-1.2198465E0,-2.7930715E0,2.741449E-1,9.952713E0,2.466666E0,5.3078914E-1,2.1815214E0,-5.1375375E0,1.7200499E0,2.2355177E-1,-5.811114E-1,-4.962225E-2,8.995041E-1,-6.4984053E-1,-4.9561065E-2,-2.095215E-1,-9.8528314E-1,1.4861962E0,-1.9377747E-1,-3.3415027E0,1.11767165E-1,-9.022331E-1,-2.9312217E0,-1.1204126E-1,2.2617378E0,1.4883222E-1,-1.445137E0,8.264126E-1,-1.4335093E0,3.329718E0,6.331467E-1,9.694691E-2,8.4922105E-1,1.9822332E-1,-2.648893E0,-2.9646232E0,1.0228084E-1,-1.2925591E0,8.0482125E-1],"categories":[],"categories_nodes":[],"categories_segments":[],"categories_sizes":[],"default_left":[0,0,0,0,0,0,0,0,0,0,0,0,0,0,0,0,0,0,0,0,0,0,0,0,0,0,0,0,0,0,0,0,0,0,0,0,0,0,0,0,0,0,0,0,0,0,0,0,0,0,0,0,0,0,0,0,0,0,0,0,0,0,0,0,0,0,0,0,0,0,0,0,0,0,0,0,0,0,0,0,0,0,0],"id":13,"left_children":[1,3,5,7,9,11,13,15,17,19,21,23,25,27,29,31,-1,33,35,-1,-1,-1,37,39,41,43,45,47,-1,49,51,-1,-1,-1,53,55,57,-1,-1,59,61,63,65,67,69,-1,71,73,75,77,-1,79,81,-1,-1,-1,-1,-1,-1,-1,-1,-1,-1,-1,-1,-1,-1,-1,-1,-1,-1,-1,-1,-1,-1,-1,-1,-1,-1,-1,-1,-1,-1],"loss_changes":[6.706373E1,8.13425E1,9.169325E1,5.814297E1,8.503458E1,3.6534836E2,1.9393991E2,1.3352955E1,1.5182912E2,1.2194549E1,2.5133347E1,3.0518582E2,3.2843567E2,3.513418E2,8.361235E1,1.252058E0,0E0,4.418463E1,7.225589E1,0E0,0E0,0E0,9.198059E0,1.2305639E2,2.7960358E2,2.41168E2,2.3565543E2,1.2605704E2,0E0,1.7799619E2,3.6181317E2,0E0,0E0,0E0,7.6996512E0,1.7912994E2,1.0824393E2,0E0,0E0,5.9385986E0,5.199485E1,2.221138E2,3.169983E1,2.6694934E2,5.794466E1,0E0,1.1342757E2,3.0515015E1,3.767559E0,2.6615167E2,0E0,3.4127594E2,1.21827805E2,0E0,0E0,0E0,0E0,0E0,0E0,0E0,0E0,0E0,0E0,0E0,0E0,0E0,0E0,0E0,0E0,0E0,0E0,0E0,0E0,0E0,0E0,0E0,0E0,0E0,0E0,0E0,0E0,0E0,0E0],"parents":[2147483647,0,0,1,1,2,2,3,3,4,4,5,5,6,6,7,7,8,8,9,9,10,10,11,11,12,12,13,13,14,14,15,15,17,17,18,18,22,22,23,23,24,24,25,25,26,26,27,27,29,29,30,30,34,34,35,35,36,36,39,39,40,40,41,41,42,42,43,43,44,44,46,46,47,47,48,48,49,49,51,51,52,52],"right_children":[2,4,6,8,10,12,14,16,18,20,22,24,26,28,30,32,-1,34,36,-1,-1,-1,38,40,42,44,46,48,-1,50,52,-1,-1,-1,54,56,58,-1,-1,60,62,64,66,68,70,-1,72,74,76,78,-1,80,82,-1,-1,-1,-1,-1,-1,-1,-1,-1,-1,-1,-1,-1,-1,-1,-1,-1,-1,-1,-1,-1,-1,-1,-1,-1,-1,-1,-1,-1,-1],"split_conditions":[4.5E1,4.4E1,9.397082E0,9.387651E0,1.3527572E1,1.3608762E1,1.0120001E1,3.8E1,1.0086427E1,2.0699167E1,6.2408347E0,1.1119281E1,8.832501E0,5.8E0,2.9633667E2,1.0517917E1,1.3149197E0,1E-1,1.375558E1,-2.7973518E-1,5.8658105E-1,-5.708714E-2,2.8192316E2,2.8209467E2,7.1700015E0,6.4333336E1,5.8E1,5.6E1,-1.7231742E0,2.950397E2,3.0509247E2,4.726311E-1,9.810334E-2,-1.9138118E0,1.7666666E1,2.935323E2,1.4291592E1,-1.934754E0,-3.86156E-1,2.7651968E2,7.824167E0,5.447083E0,4.6E1,2.843593E2,3.0734235E2,-2.7930715E0,3.0578906E2,1.3104198E1,5.7333332E1,2.9408362E2,2.1815214E0,1.1547084E1,4.7E1,2.2355177E-1,-5.811114E-1,-4.962225E-2,8.995041E-1,-6.4984053E-1,-4.9561065E-2,-2.095215E-1,-9.8528314E-1,1.4861962E0,-1.9377747E-1,-3.3415027E0,1.11767165E-1,-9.022331E-1,-2.9312217E0,-1.1204126E-1,2.2617378E0,1.4883222E-1,-1.445137E0,8.264126E-1,-1.4335093E0,3.329718E0,6.331467E-1,9.694691E-2,8.4922105E-1,1.9822332E-1,-2.648893E0,-2.9646232E0,1.0228084E-1,-1.2925591E0,8.0482125E-1],"split_indices":[0,0,1,3,3,3,1,0,3,1,1,3,1,2,4,1,0,2,3,0,0,0,4,4,1,0,0,0,0,4,4,0,0,0,0,4,3,0,0,4,1,1,0,4,4,0,4,3,0,4,0,1,0,0,0,0,0,0,0,0,0,0,0,0,0,0,0,0,0,0,0,0,0,0,0,0,0,0,0,0,0,0,0],"split_type":[0,0,0,0,0,0,0,0,0,0,0,0,0,0,0,0,0,0,0,0,0,0,0,0,0,0,0,0,0,0,0,0,0,0,0,0,0,0,0,0,0,0,0,0,0,0,0,0,0,0,0,0,0,0,0,0,0,0,0,0,0,0,0,0,0,0,0,0,0,0,0,0,0,0,0,0,0,0,0,0,0,0,0],"sum_hessian":[7.49E2,4.21E2,3.28E2,4.11E2,1E1,7E1,2.58E2,6E0,4.05E2,4E0,6E0,3.3E1,3.7E1,1.2E1,2.46E2,4E0,2E0,7E0,3.98E2,2E0,2E0,1E0,5E0,1.2E1,2.1E1,2.7E1,1E1,1E1,2E0,2.16E2,3E1,2E0,2E0,4E0,3E0,9.3E1,3.05E2,4E0,1E0,5E0,7E0,1.1E1,1E1,1.9E1,8E0,3E0,7E0,5E0,5E0,2.13E2,3E0,1.2E1,1.8E1,1E0,2E0,7E1,2.3E1,2.9E1,2.76E2,2E0,3E0,5E0,2E0,1E0,1E1,2E0,8E0,6E0,1.3E1,6E0,2E0,5E0,2E0,4E0,1E0,1E0,4E0,2.11E2,2E0,6E0,6E0,2E0,1.6E1],"tree_param":{"num_deleted":"0","num_feature":"5","num_nodes":"83","size_leaf_vector":"1"}},{"base_weights":[2.473947E-3,-2.5194829E0,3.650511E-2,-5.5477276E0,1.6183075E0,-1.519088E-2,1.5815558E0,-2.3585138E0,-7.95077E0,1.4261067E0,-3.5396004E-1,-7.724662E-2,1.1290579E0,6.898554E0,4.9348214E-1,-7.9829067E-1,-2.1767236E-1,-7.3756945E-1,-2.8402772E0,-2.2023697E-1,1.1797944E-1,3.0880263E-2,-1.5728896E0,-7.3644155E-1,5.6053696E0,2.4426606E0,4.7514156E-1,-1.2350216E0,2.5183384E0,-9.730477E-2,1.5710865E0,4.1414183E-1,-4.176738E0,5.181707E-1,-3.7809172E0,3.3251913E0,3.1563504E0,-3.1540666E0,1.6720407E0,4.274336E0,-9.252624E-2,-8.567427E-3,-1.0201484E0,7.1400964E-1,-4.3194577E-1,-2.2345404E-1,1.6987984E0,2.2274752E-1,-1.3424169E0,9.503344E-1,-3.4566545E-1,5.2890706E-1,-1.4474307E0,1.2105808E0,-5.8125E-1,-1.214547E0,8.472557E-2,2.1664712E0,2.985978E-1,-4.2750207E-1,7.856095E-1],"categories":[],"categories_nodes":[],"categories_segments":[],"categories_sizes":[],"default_left":[0,0,0,0,0,0,0,0,0,0,0,0,0,0,0,0,0,0,0,0,0,0,0,0,0,0,0,0,0,0,0,0,0,0,0,0,0,0,0,0,0,0,0,0,0,0,0,0,0,0,0,0,0,0,0,0,0,0,0,0,0],"id":14,"left_children":[1,3,5,7,9,11,13,15,17,-1,19,21,23,25,27,-1,-1,-1,-1,-1,-1,29,31,33,35,-1,-1,37,39,41,43,45,47,49,51,-1,53,55,-1,57,59,-1,-1,-1,-1,-1,-1,-1,-1,-1,-1,-1,-1,-1,-1,-1,-1,-1,-1,-1,-1],"loss_changes":[6.4460815E1,1.3428035E2,5.9209866E1,2.723088E1,3.260167E1,5.1070393E1,1.3544255E2,4.4834137E-2,1.7153931E0,0E0,1.4249743E0,1.1034108E2,3.1309863E2,1.3543045E1,7.6609604E1,0E0,0E0,0E0,0E0,0E0,0E0,1.2591667E2,2.3973044E2,1.0508935E2,1.1260428E2,0E0,0E0,1.7436865E2,4.624221E1,1.3365497E2,1.2277408E2,1.6845811E2,3.2639618E1,9.216758E1,5.4802605E1,0E0,4.811206E1,3.1880112E1,0E0,5.079624E1,2.1794933E1,0E0,0E0,0E0,0E0,0E0,0E0,0E0,0E0,0E0,0E0,0E0,0E0,0E0,0E0,0E0,0E0,0E0,0E0,0E0,0E0],"parents":[2147483647,0,0,1,1,2,2,3,3,4,4,5,5,6,6,7,7,8,8,10,10,11,11,12,12,13,13,14,14,21,21,22,22,23,23,24,24,27,27,28,28,29,29,30,30,31,31,32,32,33,33,34,34,36,36,37,37,39,39,40,40],"right_children":[2,4,6,8,10,12,14,16,18,-1,20,22,24,26,28,-1,-1,-1,-1,-1,-1,30,32,34,36,-1,-1,38,40,42,44,46,48,50,52,-1,54,56,-1,58,60,-1,-1,-1,-1,-1,-1,-1,-1,-1,-1,-1,-1,-1,-1,-1,-1,-1,-1,-1,-1],"split_conditions":[5.447083E0,2.9735876E2,7.5333336E1,2.9209427E2,4.9075007E0,2.6928337E1,7.6333336E1,1.0661107E1,3.75E1,1.4261067E0,1.8666666E1,2.5790833E1,1.9272614E1,1E-1,1.1861667E1,-7.9829067E-1,-2.1767236E-1,-7.3756945E-1,-2.8402772E0,-2.2023697E-1,1.1797944E-1,2.3876251E1,1.7883682E2,2.179957E2,1.9770523E1,2.4426606E0,4.7514156E-1,9.1333336E1,1.858451E1,2.3647085E1,1.9191748E1,1.5648778E2,2.2333334E1,3.7E1,2.7333334E1,3.3251913E0,5.3666668E1,1.6645864E1,1.6720407E0,1E-1,1.5E0,-8.567427E-3,-1.0201484E0,7.1400964E-1,-4.3194577E-1,-2.2345404E-1,1.6987984E0,2.2274752E-1,-1.3424169E0,9.503344E-1,-3.4566545E-1,5.2890706E-1,-1.4474307E0,1.2105808E0,-5.8125E-1,-1.214547E0,8.472557E-2,2.1664712E0,2.985978E-1,-4.2750207E-1,7.856095E-1],"split_indices":[1,4,0,4,1,1,0,3,0,0,0,1,3,2,1,0,0,0,0,0,0,1,4,4,3,0,0,0,3,1,3,4,0,0,0,0,0,3,0,2,2,0,0,0,0,0,0,0,0,0,0,0,0,0,0,0,0,0,0,0,0],"split_type":[0,0,0,0,0,0,0,0,0,0,0,0,0,0,0,0,0,0,0,0,0,0,0,0,0,0,0,0,0,0,0,0,0,0,0,0,0,0,0,0,0,0,0,0,0,0,0,0,0,0,0,0,0,0,0,0,0,0,0,0,0],"sum_hessian":[7.49E2,9E0,7.4E2,5E0,4E0,7.17E2,2.3E1,3E0,2E0,1E0,3E0,6.81E2,3.6E1,3E0,2E1,2E0,1E0,1E0,1E0,2E0,1E0,6.36E2,4.5E1,2.6E1,1E1,2E0,1E0,1.1E1,9E0,5.88E2,4.8E1,2.6E1,1.9E1,1.9E1,7E0,2E0,8E0,9E0,2E0,5E0,4E0,5.77E2,1.1E1,3.8E1,1E1,2.2E1,4E0,1E0,1.8E1,7E0,1.2E1,1E0,6E0,7E0,1E0,7E0,2E0,2E0,3E0,3E0,1E0],"tree_param":{"num_deleted":"0","num_feature":"5","num_nodes":"61","size_leaf_vector":"1"}},{"base_weights":[1.0082698E-2,2.532566E0,-1.3663895E-2,1.0646639E0,1.0101981E0,-2.0906336E0,1.4612786E-2,4.4733012E-1,1.2764551E-1,-4.6490436E0,1.3975853E0,5.5439923E-2,-1.2516638E0,-5.7148504E-1,-6.758154E0,1.2121909E0,-2.733364E-1,-4.790106E-3,2.2556732E0,-1.9427478E0,1.2009437E0,-6.26934E-1,-2.4142354E0,-1.7618944E-1,1.0028229E-1,3.5256285E-2,-3.448181E0,-5.122121E-2,3.0832226E0,-3.9724956E0,2.6361325E-1,-6.649784E-3,4.4945017E-1,4.4019777E-1,-1.5993713E0,6.707382E-1,-9.250504E-1,1.2797168E0,2.3868047E-1,-6.0829103E-1,-2.060727E0,8.9890856E-1,-3.407138E-1],"categories":[],"categories_nodes":[],"categories_segments":[],"categories_sizes":[],"default_left":[0,0,0,0,0,0,0,0,0,0,0,0,0,0,0,0,0,0,0,0,0,0,0,0,0,0,0,0,0,0,0,0,0,0,0,0,0,0,0,0,0,0,0],"id":15,"left_children":[1,3,5,7,-1,9,11,-1,-1,13,15,17,19,-1,21,-1,23,25,27,29,-1,-1,-1,-1,-1,31,33,35,37,39,41,-1,-1,-1,-1,-1,-1,-1,-1,-1,-1,-1,-1],"loss_changes":[4.4959896E1,4.992359E0,4.3725533E1,4.5583582E-1,0E0,9.574037E1,3.8067753E1,0E0,0E0,2.1851624E1,2.3186108E1,9.4497635E1,9.1301956E1,0E0,1.2393646E0,0E0,9.5938444E-1,9.5958855E1,3.6430252E1,9.509267E1,0E0,0E0,0E0,0E0,0E0,5.7827686E1,8.1872086E1,4.8503296E1,3.4477753E1,4.8040115E1,4.5467068E1,0E0,0E0,0E0,0E0,0E0,0E0,0E0,0E0,0E0,0E0,0E0,0E0],"parents":[2147483647,0,0,1,1,2,2,3,3,5,5,6,6,9,9,10,10,11,11,12,12,14,14,16,16,17,17,18,18,19,19,25,25,26,26,27,27,28,28,29,29,30,30],"right_children":[2,4,6,8,-1,10,12,-1,-1,14,16,18,20,-1,22,-1,24,26,28,30,-1,-1,-1,-1,-1,32,34,36,38,40,42,-1,-1,-1,-1,-1,-1,-1,-1,-1,-1,-1,-1],"split_conditions":[8.161764E0,3.8E1,5.447083E0,2.3E1,1.0101981E0,2.9735876E2,1.0800001E1,4.4733012E-1,1.2764551E-1,2.9209427E2,4.9075007E0,6.5E0,2.2407501E1,-5.7148504E-1,3.75E1,1.2121909E0,1.8666666E1,5.8E0,1.6280418E1,8.726535E1,1.2009437E0,-6.26934E-1,-2.4142354E0,-1.7618944E-1,1.0028229E-1,4E0,2.4333334E1,1.2661666E1,2.2584585E1,7.032044E1,1.6009584E1,-6.649784E-3,4.4945017E-1,4.4019777E-1,-1.5993713E0,6.707382E-1,-9.250504E-1,1.2797168E0,2.3868047E-1,-6.0829103E-1,-2.060727E0,8.9890856E-1,-3.407138E-1],"split_indices":[3,0,1,0,0,4,2,0,0,4,1,2,1,0,0,0,0,2,1,4,0,0,0,0,0,2,0,1,1,4,1,0,0,0,0,0,0,0,0,0,0,0,0],"split_type":[0,0,0,0,0,0,0,0,0,0,0,0,0,0,0,0,0,0,0,0,0,0,0,0,0,0,0,0,0,0,0,0,0,0,0,0,0,0,0,0,0,0,0],"sum_hessian":[7.49E2,6E0,7.43E2,3E0,3E0,9E0,7.34E2,1E0,2E0,5E0,4E0,7.12E2,2.2E1,3E0,2E0,1E0,3E0,6.94E2,1.8E1,2E1,2E0,1E0,1E0,2E0,1E0,6.87E2,7E0,5E0,1.3E1,1E1,1E1,6.62E2,2.5E1,2E0,5E0,3E0,2E0,8E0,5E0,7E0,3E0,3E0,7E0],"tree_param":{"num_deleted":"0","num_feature":"5","num_nodes":"43","size_leaf_vector":"1"}},{"base_weights":[5.386379E-3,-1.2751013E0,4.583395E-2,-8.613069E-1,-8.921619E-1,3.3144525E-1,-1.5062991E-1,5.2503012E-2,-1.6698426E0,6.782413E-1,-1.678047E0,2.5534484E-1,-1.2587624E0,-1.1323967E0,1.0311689E0,1.6377412E-1,-1.9460095E0,-1.0408576E0,9.9491906E-1,-2.3868186E0,1.2983211E0,7.112312E-2,3.1409733E0,-3.428423E0,-3.9141044E-1,4.752617E-2,-4.4841185E-1,-4.1757232E-1,5.382498E-1,-1.1229655E0,-7.633382E-1,9.2915905E-1,-2.6949239E0,4.8121376E0,5.787319E-1,-3.1721623E0,-1.0105432E0,-7.465956E-2,3.2840853E0,9.099293E-1,4.68083E0,-4.1372657E0,5.0390916E0,4.4260917E0,-8.868469E-1,-4.1428473E-2,-4.7426313E-1,5.555999E-2,1.4505622E0,8.360912E-1,-1.1121507E0,-4.7665247E-1,2.2435355E0,-1.3843665E0,2.3040414E-1,1.6392682E-1,-1.1112238E0,-7.418162E-1,-9.51272E-2,-3.5157636E-1,4.518432E-2,-4.2560264E-1,1.4510343E0,-3.0201548E-1,4.8040792E-1,2.2819214E0,7.898818E-1,-7.8852373E-1,-2.1129048E0,2.3837472E-1,2.0292168E0,1.8987855E-1,2.4183068E0,-7.0822096E-1,1.3946371E-1],"categories":[],"categories_nodes":[],"categories_segments":[],"categories_sizes":[],"default_left":[0,0,0,0,0,0,0,0,0,0,0,0,0,0,0,0,0,0,0,0,0,0,0,0,0,0,0,0,0,0,0,0,0,0,0,0,0,0,0,0,0,0,0,0,0,0,0,0,0,0,0,0,0,0,0,0,0,0,0,0,0,0,0,0,0,0,0,0,0,0,0,0,0,0,0],"id":16,"left_children":[1,3,5,-1,7,9,11,13,15,17,19,21,23,25,27,-1,29,31,33,35,-1,37,39,41,43,-1,-1,-1,-1,45,-1,47,49,51,53,55,57,59,61,63,65,67,69,71,73,-1,-1,-1,-1,-1,-1,-1,-1,-1,-1,-1,-1,-1,-1,-1,-1,-1,-1,-1,-1,-1,-1,-1,-1,-1,-1,-1,-1,-1,-1],"loss_changes":[3.8902905E1,1.1494831E1,4.0899677E1,0E0,1.4780625E1,2.0811269E2,1.9466689E2,1.2763902E1,7.793455E0,1.3931326E2,1.9762564E2,1.6829236E2,2.1695377E2,2.575169E0,1.3590115E1,0E0,2.0681763E0,1.3284555E2,3.387807E2,4.0028366E1,0E0,1.4029507E2,6.1015045E1,2.1891846E2,2.0441364E2,0E0,0E0,0E0,0E0,2.4875908E0,0E0,5.431739E1,1.3241019E2,3.702895E2,1.9522809E2,5.147348E1,1.5439135E1,7.1118454E1,1.0178723E2,1.3539175E1,4.5876648E1,1.17403015E2,1.6590279E1,1.05201035E2,1.5450415E2,0E0,0E0,0E0,0E0,0E0,0E0,0E0,0E0,0E0,0E0,0E0,0E0,0E0,0E0,0E0,0E0,0E0,0E0,0E0,0E0,0E0,0E0,0E0,0E0,0E0,0E0,0E0,0E0,0E0,0E0],"parents":[2147483647,0,0,1,1,2,2,4,4,5,5,6,6,7,7,8,8,9,9,10,10,11,11,12,12,13,13,14,14,16,16,17,17,18,18,19,19,21,21,22,22,23,23,24,24,29,29,31,31,32,32,33,33,34,34,35,35,36,36,37,37,38,38,39,39,40,40,41,41,42,42,43,43,44,44],"right_children":[2,4,6,-1,8,10,12,14,16,18,20,22,24,26,28,-1,30,32,34,36,-1,38,40,42,44,-1,-1,-1,-1,46,-1,48,50,52,54,56,58,60,62,64,66,68,70,72,74,-1,-1,-1,-1,-1,-1,-1,-1,-1,-1,-1,-1,-1,-1,-1,-1,-1,-1,-1,-1,-1,-1,-1,-1,-1,-1,-1,-1,-1,-1],"split_conditions":[1.6E1,2.1933759E2,1.3457503E1,-8.613069E-1,2.8913123E2,2.0172853E1,2.4639767E2,2.7463208E2,7.6666665E0,2.2675694E2,1.3322083E1,2.4023088E1,2.6234348E2,1.20694E1,4.9075007E0,1.6377412E-1,1E-1,1.3104198E1,2.5965585E2,5.1333332E1,1.2983211E0,2.398318E2,3.0333334E1,2.7551172E1,2.6678857E2,4.752617E-2,-4.4841185E-1,-4.1757232E-1,5.382498E-1,2.950397E2,-7.633382E-1,1.2978333E1,2.6333334E1,1.5315873E1,2.6329977E2,1.9666666E1,2.1218632E1,1.8365835E1,1.4345898E1,1.4961667E1,2.4967499E1,4.9666668E1,3.8E1,1.784816E1,2.881172E2,-4.1428473E-2,-4.7426313E-1,5.555999E-2,1.4505622E0,8.360912E-1,-1.1121507E0,-4.7665247E-1,2.2435355E0,-1.3843665E0,2.3040414E-1,1.6392682E-1,-1.1112238E0,-7.418162E-1,-9.51272E-2,-3.5157636E-1,4.518432E-2,-4.2560264E-1,1.4510343E0,-3.0201548E-1,4.8040792E-1,2.2819214E0,7.898818E-1,-7.8852373E-1,-2.1129048E0,2.3837472E-1,2.0292168E0,1.8987855E-1,2.4183068E0,-7.0822096E-1,1.3946371E-1],"split_indices":[0,4,1,0,4,3,4,4,0,4,1,3,4,3,1,0,2,3,4,0,0,4,0,3,4,0,0,0,0,4,0,1,0,3,4,0,3,1,3,1,3,0,0,3,4,0,0,0,0,0,0,0,0,0,0,0,0,0,0,0,0,0,0,0,0,0,0,0,0,0,0,0,0,0,0],"split_type":[0,0,0,0,0,0,0,0,0,0,0,0,0,0,0,0,0,0,0,0,0,0,0,0,0,0,0,0,0,0,0,0,0,0,0,0,0,0,0,0,0,0,0,0,0,0,0,0,0,0,0,0,0,0,0,0,0,0,0,0,0,0,0,0,0,0,0,0,0,0,0,0,0,0,0],"sum_hessian":[7.49E2,2.2E1,7.27E2,3E0,1.9E1,2.96E2,4.31E2,9E0,1E1,2.53E2,4.3E1,3.16E2,1.15E2,4E0,5E0,1E0,9E0,3.9E1,2.14E2,3.9E1,4E0,2.98E2,1.8E1,3.2E1,8.3E1,1E0,3E0,1E0,4E0,5E0,4E0,1.8E1,2.1E1,2E1,1.94E2,2.4E1,1.5E1,2.86E2,1.2E1,8E0,1E1,3E1,2E0,7E0,7.6E1,2E0,3E0,1.6E1,2E0,3E0,1.8E1,6E0,1.4E1,6E0,1.88E2,3E0,2.1E1,4E0,1.1E1,4.8E1,2.38E2,3E0,9E0,2E0,6E0,3E0,7E0,2.1E1,9E0,1E0,1E0,4E0,3E0,3.6E1,4E1],"tree_param":{"num_deleted":"0","num_feature":"5","num_nodes":"75","size_leaf_vector":"1"}},{"base_weights":[9.737012E-3,1.2430195E-1,-4.5710346E-1,6.4198606E-2,1.5697504E0,1.1972924E0,-9.422544E-1,1.143674E-1,-4.180653E0,-1.0225773E-3,3.7029533E0,-4.382977E0,-3.419055E-1,6.7903954E-1,-1.507378E-1,-1.9663191E0,-2.6199985E0,4.061182E-1,-1.4047892E0,1.652997E0,1.8832196E0,-2.8566504E-1,-7.2225294E0,3.5204172E0,-9.1510427E-1,-1.1319238E0,1.2201583E0,1.8599145E-1,-1.4126896E0,-7.931385E-2,-2.2538311E0,2.7217453E0,-2.2463197E-1,5.3639984E-1,6.9440025E-1,2.6814973E0,-2.8802812E0,-8.157756E0,1.7917672E-1,6.7408185E0,-1.3601875E0,-3.3710413E0,-2.2556932E-1,-6.378298E-1,6.131653E-1,-2.4283047E-1,6.761285E-1,1.4258608E-2,7.1092325E-1,-7.314215E-1,3.885227E-1,-7.6492214E-1,-1.6052914E-1,-1.3098907E-1,1.0861491E0,6.210665E-1,-2.9238233E-1,-2.899235E-1,5.313034E-1,1.3800469E-1,-1.292521E0,-8.5525286E-1,-2.780026E0,2.5092804E-1,3.0348506E0,-1.4561952E0,1.125481E0,-3.706297E-1,-1.8459225E0,9.279111E-1,-2.521408E-1],"categories":[],"categories_nodes":[],"categories_segments":[],"categories_sizes":[],"default_left":[0,0,0,0,0,0,0,0,0,0,0,0,0,0,0,0,0,0,0,0,0,0,0,0,0,0,0,0,0,0,0,0,0,0,0,0,0,0,0,0,0,0,0,0,0,0,0,0,0,0,0,0,0,0,0,0,0,0,0,0,0,0,0,0,0,0,0,0,0,0,0],"id":17,"left_children":[1,3,5,7,-1,9,11,13,15,17,19,21,23,25,27,29,-1,31,-1,-1,33,35,37,39,41,43,45,47,49,-1,51,53,55,57,-1,-1,59,61,-1,63,65,67,69,-1,-1,-1,-1,-1,-1,-1,-1,-1,-1,-1,-1,-1,-1,-1,-1,-1,-1,-1,-1,-1,-1,-1,-1,-1,-1,-1,-1],"loss_changes":[4.0169483E1,1.8479703E2,1.19917656E2,1.2761473E2,0E0,1.0209122E2,2.3604938E2,8.857359E1,5.3395493E1,4.764747E1,2.579506E1,1.9572379E2,2.223955E2,1.8659096E2,1.71512E2,2.3401031E0,0E0,3.420478E1,0E0,0E0,2.8259907E0,2.1720659E2,7.8005005E1,2.1349634E2,1.4657013E2,1.4326715E2,3.0810223E2,9.6342896E1,2.3915941E2,0E0,1.1785889E0,1.5773792E1,3.471826E1,7.277691E0,0E0,0E0,3.5374386E1,2.6550049E1,0E0,1.5097366E2,1.2536755E2,1.05283676E2,1.4340175E2,0E0,0E0,0E0,0E0,0E0,0E0,0E0,0E0,0E0,0E0,0E0,0E0,0E0,0E0,0E0,0E0,0E0,0E0,0E0,0E0,0E0,0E0,0E0,0E0,0E0,0E0,0E0,0E0],"parents":[2147483647,0,0,1,1,2,2,3,3,5,5,6,6,7,7,8,8,9,9,10,10,11,11,12,12,13,13,14,14,15,15,17,17,20,20,21,21,22,22,23,23,24,24,25,25,26,26,27,27,28,28,30,30,31,31,32,32,33,33,36,36,37,37,39,39,40,40,41,41,42,42],"right_children":[2,4,6,8,-1,10,12,14,16,18,20,22,24,26,28,30,-1,32,-1,-1,34,36,38,40,42,44,46,48,50,-1,52,54,56,58,-1,-1,60,62,-1,64,66,68,70,-1,-1,-1,-1,-1,-1,-1,-1,-1,-1,-1,-1,-1,-1,-1,-1,-1,-1,-1,-1,-1,-1,-1,-1,-1,-1,-1,-1],"split_conditions":[2.9594223E2,2.950397E2,1.2144331E1,2.9408362E2,1.5697504E0,1.0530417E1,1.3570615E1,1.3457503E1,6.5333336E1,3.4493137E2,1.2005418E1,4.5E1,1.4618837E1,2.2436804E2,2.4639767E2,1.5666667E1,-2.6199985E0,3.0666666E1,-1.4047892E0,1.652997E0,3.3369305E2,3.033833E2,6.5666664E1,1.0530417E1,1.6071491E1,1.2255418E1,1.26462E1,2.4023088E1,3E-1,-7.931385E-2,1.1474167E1,1.8666666E1,9.387651E0,4.3E1,6.9440025E-1,2.6814973E0,8.034583E0,2.9623727E2,1.7917672E-1,7.2783337E0,1E-1,1.5459054E1,1.680857E1,-6.378298E-1,6.131653E-1,-2.4283047E-1,6.761285E-1,1.4258608E-2,7.1092325E-1,-7.314215E-1,3.885227E-1,-7.6492214E-1,-1.6052914E-1,-1.3098907E-1,1.0861491E0,6.210665E-1,-2.9238233E-1,-2.899235E-1,5.313034E-1,1.3800469E-1,-1.292521E0,-8.5525286E-1,-2.780026E0,2.5092804E-1,3.0348506E0,-1.4561952E0,1.125481E0,-3.706297E-1,-1.8459225E0,9.279111E-1,-2.521408E-1],"split_indices":[4,4,3,4,0,1,3,1,0,4,1,0,3,4,4,0,0,0,0,0,4,4,0,1,3,1,3,3,2,0,1,0,3,0,0,0,1,4,0,1,2,3,3,0,0,0,0,0,0,0,0,0,0,0,0,0,0,0,0,0,0,0,0,0,0,0,0,0,0,0,0],"split_type":[0,0,0,0,0,0,0,0,0,0,0,0,0,0,0,0,0,0,0,0,0,0,0,0,0,0,0,0,0,0,0,0,0,0,0,0,0,0,0,0,0,0,0,0,0,0,0,0,0,0,0,0,0,0,0,0,0,0,0,0,0,0,0,0,0,0,0,0,0,0,0],"sum_hessian":[7.49E2,6.02E2,1.47E2,5.96E2,6E0,3.3E1,1.14E2,5.9E2,6E0,2.3E1,1E1,1.6E1,9.8E1,1.88E2,4.02E2,5E0,1E0,2.2E1,1E0,4E0,6E0,7E0,9E0,1.2E1,8.6E1,4.3E1,1.45E2,3.18E2,8.4E1,1E0,4E0,4E0,1.8E1,2E0,4E0,1E0,6E0,8E0,1E0,7E0,5E0,1.8E1,6.8E1,3.3E1,1E1,4.9E1,9.6E1,3E2,1.8E1,6.1E1,2.3E1,3E0,1E0,1E0,3E0,4E0,1.4E1,1E0,1E0,2E0,4E0,2E0,6E0,3E0,4E0,3E0,2E0,1.1E1,7E0,1E1,5.8E1],"tree_param":{"num_deleted":"0","num_feature":"5","num_nodes":"71","size_leaf_vector":"1"}},{"base_weights":[7.734093E-3,-8.819768E-2,4.9274608E-1,-5.440604E-2,-1.3752155E0,9.735239E-1,-6.209491E-1,-1.00278094E-1,1.6605953E0,-1.6508741E0,6.3118566E-4,6.6231906E-1,2.8399463E0,3.0066395E0,-1.5370704E0,-6.848269E-2,-1.911882E0,1.5048847E0,1.2400961E-1,1.296658E0,-1.7280567E0,-1.3367E0,1.3816066E0,1.5612653E0,1.4685524E0,2.4420656E-1,-4.7979565E0,-9.0096205E-2,1.2679849E0,-2.5039902E0,9.508024E-1,3.367344E-1,-2.580989E0,5.17437E-1,-6.676327E0,4.65482E0,8.208698E-1,1.235962E-2,1.8570389E0,-2.9148865E0,9.326602E-1,-6.7435627E0,2.927456E-1,-1.2926341E-2,-5.040951E-1,-1.2558174E-1,-1.1890131E0,-8.997071E-1,5.178795E-2,4.4086823E-1,-2.5692388E-1,-2.9975283E-1,-2.2835767E0,1.763695E0,7.404976E-2,9.550841E-1,4.1231974E-3,6.132431E-1,1.6629297E-1,3.744633E-1,-1.4155968E0,1.8362005E0,-2.9514743E-2,-2.6286674E0,-7.6030374E-1,1.5294877E-1,-5.377579E-2],"categories":[],"categories_nodes":[],"categories_segments":[],"categories_sizes":[],"default_left":[0,0,0,0,0,0,0,0,0,0,0,0,0,0,0,0,0,0,0,0,0,0,0,0,0,0,0,0,0,0,0,0,0,0,0,0,0,0,0,0,0,0,0,0,0,0,0,0,0,0,0,0,0,0,0,0,0,0,0,0,0,0,0,0,0,0,0],"id":18,"left_children":[1,3,5,7,9,11,13,15,17,-1,19,21,-1,23,25,27,-1,-1,29,-1,31,33,35,37,-1,39,41,43,-1,45,-1,-1,47,49,51,53,55,-1,57,59,61,63,65,-1,-1,-1,-1,-1,-1,-1,-1,-1,-1,-1,-1,-1,-1,-1,-1,-1,-1,-1,-1,-1,-1,-1,-1],"loss_changes":[3.4939503E1,2.7193687E1,6.6999054E1,4.8312946E1,9.086875E1,2.2367563E2,1.3090726E2,1.1863033E2,8.187872E1,0E0,1.0458721E2,1.24065704E2,0E0,1.4194458E1,1.8123645E2,5.5615944E1,0E0,0E0,1.03973564E2,0E0,2.7209896E1,2.3116379E2,1.11809906E2,2.621066E0,0E0,4.839127E1,1.1092369E2,4.4256557E1,0E0,1.9644585E1,0E0,0E0,9.7265625E0,2.4803905E1,2.4263428E1,4.7113754E1,1.0484297E2,0E0,8.5645676E-2,3.592695E1,9.688521E1,4.576935E1,5.012405E-1,0E0,0E0,0E0,0E0,0E0,0E0,0E0,0E0,0E0,0E0,0E0,0E0,0E0,0E0,0E0,0E0,0E0,0E0,0E0,0E0,0E0,0E0,0E0,0E0],"parents":[2147483647,0,0,1,1,2,2,3,3,4,4,5,5,6,6,7,7,8,8,10,10,11,11,13,13,14,14,15,15,18,18,20,20,21,21,22,22,23,23,25,25,26,26,27,27,29,29,32,32,33,33,34,34,35,35,36,36,38,38,39,39,40,40,41,41,42,42],"right_children":[2,4,6,8,10,12,14,16,18,-1,20,22,-1,24,26,28,-1,-1,30,-1,32,34,36,38,-1,40,42,44,-1,46,-1,-1,48,50,52,54,56,-1,58,60,62,64,66,-1,-1,-1,-1,-1,-1,-1,-1,-1,-1,-1,-1,-1,-1,-1,-1,-1,-1,-1,-1,-1,-1,-1,-1],"split_conditions":[5.9333332E1,5.8333332E1,2.9408362E2,5.7E1,1.2783802E1,2.9209427E2,1.1525623E1,5.6666668E1,1.591141E2,-1.6508741E0,1.4205182E1,1.26462E1,2.8399463E0,7.6333336E1,1.0153334E1,5.6333332E1,-1.911882E0,1.5048847E0,2.7959036E2,1.296658E0,9.83875E0,1.1753876E1,1.3237039E1,6.1E1,1.4685524E0,6.0666668E1,3.1039703E2,5.5333332E1,1.2679849E0,8.290834E0,9.508024E-1,3.367344E-1,2.2455414E1,7.7666664E1,6.0825005E0,6.9666664E1,1.2255418E1,1.235962E-2,1.0338751E1,5.8366675E0,6.2333332E1,1.6071491E1,7.2E1,-1.2926341E-2,-5.040951E-1,-1.2558174E-1,-1.1890131E0,-8.997071E-1,5.178795E-2,4.4086823E-1,-2.5692388E-1,-2.9975283E-1,-2.2835767E0,1.763695E0,7.404976E-2,9.550841E-1,4.1231974E-3,6.132431E-1,1.6629297E-1,3.744633E-1,-1.4155968E0,1.8362005E0,-2.9514743E-2,-2.6286674E0,-7.6030374E-1,1.5294877E-1,-5.377579E-2],"split_indices":[0,0,4,0,3,4,3,0,4,0,3,3,0,0,1,0,0,0,4,0,1,3,3,0,0,0,4,0,0,1,0,0,1,0,1,0,1,0,1,1,0,3,0,0,0,0,0,0,0,0,0,0,0,0,0,0,0,0,0,0,0,0,0,0,0,0,0],"split_type":[0,0,0,0,0,0,0,0,0,0,0,0,0,0,0,0,0,0,0,0,0,0,0,0,0,0,0,0,0,0,0,0,0,0,0,0,0,0,0,0,0,0,0,0,0,0,0,0,0,0,0,0,0,0,0,0,0,0,0,0,0,0,0,0,0,0,0],"sum_hessian":[7.49E2,6.26E2,1.23E2,6.11E2,1.5E1,8.6E1,3.7E1,5.96E2,1.5E1,3E0,1.2E1,8.4E1,2E0,7E0,3E1,5.94E2,2E0,4E0,1.1E1,3E0,9E0,2.2E1,6.2E1,5E0,2E0,2E1,1E1,5.92E2,2E0,6E0,5E0,2E0,7E0,1.7E1,5E0,8E0,5.4E1,1E0,4E0,3E0,1.7E1,7E0,3E0,5.76E2,1.6E1,3E0,3E0,6E0,1E0,1E1,7E0,1E0,4E0,6E0,2E0,1.3E1,4.1E1,3E0,1E0,1E0,2E0,2E0,1.5E1,4E0,3E0,2E0,1E0],"tree_param":{"num_deleted":"0","num_feature":"5","num_nodes":"67","size_leaf_vector":"1"}},{"base_weights":[8.199318E-3,2.1544603E-1,-1.9095209E-1,-7.904888E-2,9.251472E-1,-2.7535567E0,3.4633446E-2,6.83422E-2,-5.4370027E0,4.4721155E0,3.4929964E-1,3.036642E-1,-4.4502115E0,2.126314E0,-4.5209598E-2,-3.271404E-1,1.6185366E0,-2.0445615E-1,-6.1159964E0,-1.4026349E0,5.4594736E0,-2.3557222E0,8.1252193E-1,-9.0369904E-1,8.789664E-1,-8.92236E0,-3.1361637E0,-1.8251747E0,4.824141E0,-3.522766E-1,6.115961E-1,2.9773426E-1,-1.9052341E0,5.5406256E0,3.0339417E-1,-2.0405781E0,-4.0295163E-1,6.6901417E0,7.1026707E-1,5.691752E-1,-4.620542E0,-1.2089314E0,1.5867746E0,8.7893605E-1,-2.5631452E-1,-3.0227747E0,-8.192545E-1,2.5533676E-1,-4.570567E0,-1.369159E0,7.3044056E-1,2.9284883E0,1.5513744E0,-7.136407E-2,-2.4064088E0,1.0036867E0,-7.4597555E-1,-3.5304528E-1,3.2800457E-1,-1.0361694E0,-2.1314238E-1,8.308369E-1,2.826182E0,3.3241946E-1,-6.6642725E-1,2.1547565E0,2.6495135E-1,-2.893467E-1,4.7700465E-1,9.3643886E-1,-6.376219E-1,-1.874172E0,5.1910024E-2,1.6808705E0,-5.319713E-1,7.785174E-1,-4.631582E-1,7.9797995E-1,-3.1587353E-1,6.4540046E-1,-7.073319E-1,6.345137E-1,-1.6111882E0,1.523615E-1,7.2767603E-1,-4.7292826E-1,1.2252302E-1,1.9815272E-1,-1.3289216E0,5.6164867E-1,3.356085E-2,-8.2865477E-1,5.7467844E-2],"categories":[],"categories_nodes":[],"categories_segments":[],"categories_sizes":[],"default_left":[0,0,0,0,0,0,0,0,0,0,0,0,0,0,0,0,0,0,0,0,0,0,0,0,0,0,0,0,0,0,0,0,0,0,0,0,0,0,0,0,0,0,0,0,0,0,0,0,0,0,0,0,0,0,0,0,0,0,0,0,0,0,0,0,0,0,0,0,0,0,0,0,0,0,0,0,0,0,0,0,0,0,0,0,0,0,0,0,0,0,0,0,0],"id":19,"left_children":[1,3,5,7,9,11,13,15,17,19,21,23,25,27,29,31,33,-1,35,-1,37,39,41,-1,43,45,47,49,51,53,55,57,59,61,63,-1,-1,65,67,69,71,73,75,-1,77,-1,-1,79,81,-1,-1,-1,83,85,87,89,91,-1,-1,-1,-1,-1,-1,-1,-1,-1,-1,-1,-1,-1,-1,-1,-1,-1,-1,-1,-1,-1,-1,-1,-1,-1,-1,-1,-1,-1,-1,-1,-1,-1,-1,-1,-1],"loss_changes":[3.0996246E1,7.698638E1,2.2150252E2,2.0648709E2,2.1902927E2,1.6214984E2,5.9049294E1,1.5686357E2,1.8434433E1,1.6100436E2,1.1969855E2,2.5540123E1,8.955032E1,1.4739053E2,6.898947E1,2.0173386E2,2.665405E2,0E0,1.050676E1,0E0,7.7073975E1,9.537102E1,1.2869267E2,0E0,2.6361774E1,1.0531921E0,8.3868286E1,8.1112595E1,1.1412999E2,1.342766E2,5.8768436E1,1.737433E2,1.04862366E2,1.1368713E2,8.372736E1,0E0,0E0,2.5108185E1,7.427008E0,5.4775803E1,6.346257E1,9.834633E1,1.9024388E2,0E0,2.1385273E1,0E0,0E0,3.479906E1,7.554582E1,0E0,0E0,0E0,4.2415705E0,1.4939447E2,1.7667668E2,6.562487E1,4.778574E1,0E0,0E0,0E0,0E0,0E0,0E0,0E0,0E0,0E0,0E0,0E0,0E0,0E0,0E0,0E0,0E0,0E0,0E0,0E0,0E0,0E0,0E0,0E0,0E0,0E0,0E0,0E0,0E0,0E0,0E0,0E0,0E0,0E0,0E0,0E0,0E0],"parents":[2147483647,0,0,1,1,2,2,3,3,4,4,5,5,6,6,7,7,8,8,9,9,10,10,11,11,12,12,13,13,14,14,15,15,16,16,18,18,20,20,21,21,22,22,24,24,25,25,26,26,27,27,28,28,29,29,30,30,31,31,32,32,33,33,34,34,37,37,38,38,39,39,40,40,41,41,42,42,44,44,47,47,48,48,52,52,53,53,54,54,55,55,56,56],"right_children":[2,4,6,8,10,12,14,16,18,20,22,24,26,28,30,32,34,-1,36,-1,38,40,42,-1,44,46,48,50,52,54,56,58,60,62,64,-1,-1,66,68,70,72,74,76,-1,78,-1,-1,80,82,-1,-1,-1,84,86,88,90,92,-1,-1,-1,-1,-1,-1,-1,-1,-1,-1,-1,-1,-1,-1,-1,-1,-1,-1,-1,-1,-1,-1,-1,-1,-1,-1,-1,-1,-1,-1,-1,-1,-1,-1,-1,-1],"split_conditions":[1.57908325E1,1.4291592E1,1.6071491E1,1.4205182E1,8.832501E0,3.3333332E1,1.6215992E1,2.1165834E1,5.960093E1,2.614404E2,1.0836667E1,3.8970028E1,1.5807239E1,2.1492572E2,3E-1,1.3503333E1,2.2197084E1,-2.0445615E-1,3.048861E2,-1.4026349E0,3.0194034E2,4.1E1,3.2666668E1,-9.0369904E-1,1.3228335E1,3.9666668E1,1.0826249E1,2.0997084E1,3.2333332E1,1E-1,5.4E0,8.515834E0,1.8365835E1,2.1695E1,4.8666668E1,-2.0405781E0,-4.0295163E-1,6.4333336E1,4.7E1,1.477755E1,5.8666668E1,1.4336861E1,2.537208E1,8.7893605E-1,1.5807239E1,-3.0227747E0,-8.192545E-1,5.8666668E1,1.5815435E1,-1.369159E0,7.3044056E-1,2.9284883E0,5.8333332E1,2.9E1,1.5938752E1,2.0431387E1,1.7715834E1,-3.5304528E-1,3.2800457E-1,-1.0361694E0,-2.1314238E-1,8.308369E-1,2.826182E0,3.3241946E-1,-6.6642725E-1,2.1547565E0,2.6495135E-1,-2.893467E-1,4.7700465E-1,9.3643886E-1,-6.376219E-1,-1.874172E0,5.1910024E-2,1.6808705E0,-5.319713E-1,7.785174E-1,-4.631582E-1,7.9797995E-1,-3.1587353E-1,6.4540046E-1,-7.073319E-1,6.345137E-1,-1.6111882E0,1.523615E-1,7.2767603E-1,-4.7292826E-1,1.2252302E-1,1.9815272E-1,-1.3289216E0,5.6164867E-1,3.356085E-2,-8.2865477E-1,5.7467844E-2],"split_indices":[3,3,3,3,1,0,3,1,4,4,1,4,3,4,2,1,1,0,4,0,4,0,0,0,1,0,1,1,0,2,2,1,1,1,0,0,0,0,0,3,0,3,1,0,3,0,0,0,3,0,0,0,0,0,1,3,1,0,0,0,0,0,0,0,0,0,0,0,0,0,0,0,0,0,0,0,0,0,0,0,0,0,0,0,0,0,0,0,0,0,0,0,0],"split_type":[0,0,0,0,0,0,0,0,0,0,0,0,0,0,0,0,0,0,0,0,0,0,0,0,0,0,0,0,0,0,0,0,0,0,0,0,0,0,0,0,0,0,0,0,0,0,0,0,0,0,0,0,0,0,0,0,0,0,0,0,0,0,0,0,0,0,0,0,0,0,0,0,0,0,0,0,0,0,0,0,0,0,0,0,0,0,0,0,0,0,0,0,0],"sum_hessian":[7.49E2,3.67E2,3.82E2,2.6E2,1.07E2,3E1,3.52E2,2.54E2,6E0,1.4E1,9.3E1,1.1E1,1.9E1,1.2E1,3.4E2,2.03E2,5.1E1,1E0,5E0,1E0,1.3E1,1.3E1,8E1,1E0,1E1,3E0,1.6E1,5E0,7E0,2.32E2,1.08E2,1.46E2,5.7E1,1.2E1,3.9E1,4E0,1E0,1E1,3E0,6E0,7E0,2.2E1,5.8E1,3E0,7E0,2E0,1E0,5E0,1.1E1,3E0,2E0,2E0,5E0,2.05E2,2.7E1,8.4E1,2.4E1,5.1E1,9.5E1,2.4E1,3.3E1,8E0,4E0,3E1,9E0,9E0,1E0,1E0,2E0,3E0,3E0,5E0,2E0,1E0,2.1E1,4.4E1,1.4E1,1E0,6E0,3E0,2E0,1E0,1E1,3E0,2E0,4.9E1,1.56E2,1.1E1,1.6E1,4.2E1,4.2E1,7E0,1.7E1],"tree_param":{"num_deleted":"0","num_feature":"5","num_nodes":"93","size_leaf_vector":"1"}},{"base_weights":[2.58689E-3,-4.093516E-2,8.191299E-1,1.00582585E-1,-4.7005433E-1,-4.3672398E-1,3.5765402E0,-2.1680924E-3,3.0633476E0,-1.4503815E0,1.9940296E-2,4.8618406E-1,-3.143059E0,2.6259713E0,1.6658771E0,2.4783596E-1,-4.7981736E-1,-1.3882817E0,3.7879686E0,3.4067929E0,-1.680577E0,-1.294332E0,9.9107003E-1,2.3025465E0,-8.0869645E-1,5.233861E-1,-1.2745327E0,2.478366E0,-1.0560519E0,3.5736036E-1,-1.1552277E0,-6.575973E-1,1.3724155E0,8.388362E0,1.7272042E0,2.4990721E-1,1.2831497E0,-2.2796834E0,-3.623809E-1,3.0446029E0,-1.7283819E0,-1.2927802E0,1.3551939E0,-3.4664154E-2,3.4769294E0,-4.038317E0,1.0753924E0,-1.8848038E-1,3.3987281E0,-5.2097917E-1,4.575577E-2,3.3767816E-2,5.407297E-1,5.714174E-1,-8.121744E-1,-4.1674566E-1,-9.16631E-2,5.59422E-1,-9.0186745E-1,4.9810526E-1,2.8965833E0,1.1737787E0,-4.4235536E-1,-4.6332994E-1,-1.4807173E0,5.0133735E-1,-3.6239967E-1,1.2663335E0,-2.4921456E-1,-1.7751905E0,-2.1521725E-1,1.23219304E-1,-9.2353123E-1,6.055165E-1,3.537944E-2,1.9105226E-1,-1.4123383E-1,1.2014942E0,1.2550107E-1,-1.4714313E0,-8.5875325E-2,8.0080867E-1,-4.994583E-2,-1.2092228E-1,3.610611E-2,1.1351347E0,2.2101861E-1],"categories":[],"categories_nodes":[],"categories_segments":[],"categories_sizes":[],"default_left":[0,0,0,0,0,0,0,0,0,0,0,0,0,0,0,0,0,0,0,0,0,0,0,0,0,0,0,0,0,0,0,0,0,0,0,0,0,0,0,0,0,0,0,0,0,0,0,0,0,0,0,0,0,0,0,0,0,0,0,0,0,0,0,0,0,0,0,0,0,0,0,0,0,0,0,0,0,0,0,0,0,0,0,0,0,0,0],"id":20,"left_children":[1,3,5,7,9,11,13,15,17,19,21,23,25,-1,27,29,31,-1,33,35,37,39,41,43,45,-1,-1,47,49,51,53,55,57,59,61,-1,-1,63,65,67,69,71,73,75,77,79,81,83,85,-1,-1,-1,-1,-1,-1,-1,-1,-1,-1,-1,-1,-1,-1,-1,-1,-1,-1,-1,-1,-1,-1,-1,-1,-1,-1,-1,-1,-1,-1,-1,-1,-1,-1,-1,-1,-1,-1],"loss_changes":[2.668675E1,4.3346325E1,1.3315233E2,1.6348344E2,8.505177E1,6.8965965E1,1.041093E2,6.221433E1,1.1784369E2,7.169324E1,1.5316592E2,5.1253483E1,4.523123E1,0E0,2.473265E1,5.2967857E1,5.984537E1,0E0,1.4667714E2,3.1574326E0,4.4189056E1,1.0131125E2,5.913266E1,2.4823544E1,8.344637E1,0E0,0E0,2.0276306E1,2.7323258E0,1.12291214E2,1.2388425E2,4.1813194E1,4.0097206E1,2.6587952E1,9.673039E1,0E0,0E0,6.853842E1,3.469052E1,2.6303265E1,1.947981E2,3.168328E1,4.899469E1,1.4712259E0,8.015129E0,1.4850967E1,1.8260063E1,2.473332E-1,3.362465E0,0E0,0E0,0E0,0E0,0E0,0E0,0E0,0E0,0E0,0E0,0E0,0E0,0E0,0E0,0E0,0E0,0E0,0E0,0E0,0E0,0E0,0E0,0E0,0E0,0E0,0E0,0E0,0E0,0E0,0E0,0E0,0E0,0E0,0E0,0E0,0E0,0E0,0E0],"parents":[2147483647,0,0,1,1,2,2,3,3,4,4,5,5,6,6,7,7,8,8,9,9,10,10,11,11,12,12,14,14,15,15,16,16,18,18,19,19,20,20,21,21,22,22,23,23,24,24,27,27,28,28,29,29,30,30,31,31,32,32,33,33,34,34,37,37,38,38,39,39,40,40,41,41,42,42,43,43,44,44,45,45,46,46,47,47,48,48],"right_children":[2,4,6,8,10,12,14,16,18,20,22,24,26,-1,28,30,32,-1,34,36,38,40,42,44,46,-1,-1,48,50,52,54,56,58,60,62,-1,-1,64,66,68,70,72,74,76,78,80,82,84,86,-1,-1,-1,-1,-1,-1,-1,-1,-1,-1,-1,-1,-1,-1,-1,-1,-1,-1,-1,-1,-1,-1,-1,-1,-1,-1,-1,-1,-1,-1,-1,-1,-1,-1,-1,-1,-1,-1],"split_conditions":[2.6928337E1,1.8947083E1,1.9272614E1,1.8514643E1,1.3080418E1,2.1933759E2,1.9770523E1,2E-1,1.6666666E1,6.0825005E0,2.1288757E1,3.8E1,2.7333334E1,2.6259713E0,5.3666668E1,2.5695002E1,3.1631378E2,-1.3882817E0,3.3333332E1,7.6666665E0,5.1333332E1,1.3457503E1,8.161683E1,3.3E1,3.9666668E1,5.233861E-1,-1.2745327E0,1.2396755E2,6.0333332E1,2.1582502E1,1.484318E1,6E-1,1.710284E1,1.8333334E1,1.8792551E1,2.4990721E-1,1.2831497E0,4.5333332E1,5.8E1,4.5333332E1,1.5080418E1,2.9333334E1,1.8905418E1,2.7722082E1,3.7E1,2.1567645E2,5.9E1,2.9666666E1,2.2606735E2,-5.2097917E-1,4.575577E-2,3.3767816E-2,5.407297E-1,5.714174E-1,-8.121744E-1,-4.1674566E-1,-9.16631E-2,5.59422E-1,-9.0186745E-1,4.9810526E-1,2.8965833E0,1.1737787E0,-4.4235536E-1,-4.6332994E-1,-1.4807173E0,5.0133735E-1,-3.6239967E-1,1.2663335E0,-2.4921456E-1,-1.7751905E0,-2.1521725E-1,1.23219304E-1,-9.2353123E-1,6.055165E-1,3.537944E-2,1.9105226E-1,-1.4123383E-1,1.2014942E0,1.2550107E-1,-1.4714313E0,-8.5875325E-2,8.0080867E-1,-4.994583E-2,-1.2092228E-1,3.610611E-2,1.1351347E0,2.2101861E-1],"split_indices":[1,3,3,3,1,4,3,2,0,1,3,0,0,0,0,1,4,0,0,0,0,1,4,0,0,0,0,4,0,1,3,2,3,0,3,0,0,0,0,0,1,0,1,1,0,4,0,0,4,0,0,0,0,0,0,0,0,0,0,0,0,0,0,0,0,0,0,0,0,0,0,0,0,0,0,0,0,0,0,0,0,0,0,0,0,0,0],"split_type":[0,0,0,0,0,0,0,0,0,0,0,0,0,0,0,0,0,0,0,0,0,0,0,0,0,0,0,0,0,0,0,0,0,0,0,0,0,0,0,0,0,0,0,0,0,0,0,0,0,0,0,0,0,0,0,0,0,0,0,0,0,0,0,0,0,0,0,0,0,0,0,0,0,0,0,0,0,0,0,0,0,0,0,0,0,0,0],"sum_hessian":[7.49E2,7.12E2,3.7E1,5.36E2,1.76E2,2.6E1,1.1E1,5.19E2,1.7E1,5.8E1,1.18E2,2E1,6E0,2E0,9E0,3.41E2,1.78E2,1E0,1.6E1,2E0,5.6E1,5E1,6.8E1,8E0,1.2E1,1E0,5E0,7E0,2E0,3.17E2,2.4E1,1.63E2,1.5E1,4E0,1.2E1,1E0,1E0,3.8E1,1.8E1,4E0,4.6E1,9E0,5.9E1,3E0,5E0,4E0,8E0,2E0,5E0,1E0,1E0,2.72E2,4.5E1,8E0,1.6E1,5.2E1,1.11E2,1.4E1,1E0,1E0,3E0,7E0,5E0,3.1E1,7E0,5E0,1.3E1,3E0,1E0,8E0,3.8E1,5E0,4E0,3.8E1,2.1E1,1E0,2E0,4E0,1E0,3E0,1E0,3E0,5E0,1E0,1E0,4E0,1E0],"tree_param":{"num_deleted":"0","num_feature":"5","num_nodes":"87","size_leaf_vector":"1"}},{"base_weights":[7.2204075E-3,-1.5001866E0,2.7553538E-2,-3.0699673E0,6.835877E-1,1.06907494E-1,-3.5693654E-1,-4.0305063E-1,-4.3485985E0,7.2505647E-1,-3.5394287E-1,1.69495E0,5.3438105E-2,5.760407E-1,-8.759611E-1,-3.370428E-1,-1.6198266E0,-1.8515016E-1,6.53595E-2,2.4885824E0,-5.7162285E-1,-1.136617E0,1.11905776E-1,-2.7691785E-1,6.3085837E0,-2.3886955E0,-2.8148025E-1,4.847702E-1,3.1731715E0,4.6764567E-1,-3.928425E-1,-2.4536436E0,5.717709E-1,4.372859E-2,1.5936922E0,6.037288E-1,-3.0672953E0,7.7249446E0,-1.1598302E-1,-1.4928555E0,-4.678099E0,-1.6830558E0,5.1636946E-1,3.2607308E-1,-8.3687976E-2,1.7274355E0,4.4521552E-1,2.5071183E-1,-1.2074329E0,1.3291206E0,-4.9063286E-1,1.950116E-2,-8.5500103E-1,7.769303E-1,-8.7256867E-1,-4.120067E-2,6.743412E-1,4.3308336E-1,-1.1186725E0,6.781978E-1,2.5577555E0,1.2404252E-1,-4.8879442E-1,-2.5101015E-1,-1.5837117E0,3.8317624E-1,-6.653091E-1,8.9611197E-1,-6.52737E-2],"categories":[],"categories_nodes":[],"categories_segments":[],"categories_sizes":[],"default_left":[0,0,0,0,0,0,0,0,0,0,0,0,0,0,0,0,0,0,0,0,0,0,0,0,0,0,0,0,0,0,0,0,0,0,0,0,0,0,0,0,0,0,0,0,0,0,0,0,0,0,0,0,0,0,0,0,0,0,0,0,0,0,0,0,0,0,0,0,0],"id":21,"left_children":[1,3,5,7,9,11,13,-1,15,-1,17,19,21,23,25,-1,-1,-1,-1,27,29,31,33,35,37,39,41,43,45,-1,-1,47,49,51,53,55,57,59,-1,61,63,65,67,-1,-1,-1,-1,-1,-1,-1,-1,-1,-1,-1,-1,-1,-1,-1,-1,-1,-1,-1,-1,-1,-1,-1,-1,-1,-1],"loss_changes":[2.302906E1,3.6379055E1,2.2646667E1,7.402725E0,9.847017E0,5.2130104E1,6.200283E1,0E0,4.100979E0,0E0,7.36514E-1,3.7399044E1,4.159672E1,2.2666956E2,7.306954E1,0E0,